guppy	0.0505072,-0.0306104,-0.0237231,0.0324471,0.129176,-0.0838726,-0.0394875,0.0137747,0.0621392,-0.0746895,-0.0172949,0.0961168,-0.0514255,-0.0563232,-0.0353551,-0.00612209,-0.0171418,0.0391814,-0.0166062,0.00283147,-0.0379569,0.0266311,0.0431607,-0.0303043,0.0228048,0.0768322,-0.0832604,0.14693,0.0713223,-0.0912191,0.0535683,-0.0700979,0.0973412,0.00761435,0.0694857,0.0198968,-0.0502011,0.00956576,-0.044079,-0.0979534,0.026325,0.0453034,-0.0195142,0.0777505,-0.137135,0.00267841,0.0422424,-0.11081,0.032141,-0.0618331,-0.0550988,-0.029233,0.0514255,-0.142645,-0.00780566,-0.0117085,-0.0771383,-0.0801993,0.0342837,0.0267841,-0.0338245,0.0359673,-0.0887703,-0.0419363,-0.0138512,-0.0930557,-0.0593842,-0.0397936,-0.0489767,-0.041018,0.0138512,-0.0618331,0.00340541,-0.0443851,-0.0301513,-0.00520377,-0.01454,-0.00269754,0.0212743,-0.0388753,0.0893825,0.0991778,-0.0316818,0.0419363,0.0295391,-0.0428546,-0.0630575,0.0080735,0.0924435,0.0590781,0.0109432,-0.119993,-0.0789749,0.0400997,-0.0394875,0.0756078,-0.00661951,0.026478,0.125503,0.106524,0.0590781,0.0146165,0.0768322,0.0746895,0.0765261,0.0740772,0.0483645,-0.0942801,-0.0572415,4.51384e-05,0.00715519,0.0149991,0.0535683,-0.085097,0.0136982,-0.0955046,0.00478288,-0.0298452,-0.049895,0.011785,0.0120146,-0.115095,-0.0238761,0.0437729,-0.0247945,-0.0165296,-0.0906069,0.151828,-0.0284677,0.00468722,-0.0707101,0.0261719,-0.0652002,-0.049895,0.0307635,-0.0808115,0.00281233,0.0252536,0.0241822,0.110198,-0.0486706,-0.0370386,-0.107749,-0.0483645,-0.0217334,0.0832604,-0.0948923,-0.0183663,-0.0335184,0.0186724,-0.0456095,-0.115707,-0.0289269,0.0801993,-0.0378039,0.000490245,-0.0353551,-0.0477523,-0.0277024,-0.085097,0.0284677,-0.0215804,0.0667307,0.107749,0.0661185,-0.1053,-0.0277024,0.0489767,0.0434668,0.0143104,0.0261719,-0.0459157,0.00661951,-0.0214273,0.0550988,0.0135451,0.0148461,-0.0832604,0.0596903,0.0413241,-0.0309165,-0.0261719,-0.0237231,0.0356612,0.0446912,0.0313757,-0.0446912,-0.0370386,0.061527,0.0224987,-0.0202029,0.0200498,-0.0193611,-0.00975708,-0.0535683,0.0630575,-0.0477523,0.0275494,-0.160399,-0.058772,-0.0652002,-0.0459157,-0.0514255,0.0667307,0.0857092,-0.0416302,0.0296921,0.0316818,-0.096729,-0.0774444,-0.0593842,-0.00286973,0.029233,0.038263,-0.102851,-0.0428546,0.0183663,-0.044079,-0.0630575,0.0434668,-0.0679552,0.126115,-0.0728528,-0.0342837,0.0771383,0.0183663,-0.0117085,-0.00168357,-0.013086,-0.0277024,0.00166444,0.0203559,-0.09979,-0.0252536,0.0266311,0.0449973,-0.0298452,-0.032141,-0.00434286,-0.00868571,-0.0400997,0.0326001,-0.0122442,-0.0110963,-0.0172949,0.0304574,-0.0243353,-0.0224987,0.041018,0.000461548,-0.0246414,-0.041018,0.07622,0.00485941,0.0572415,0.0486706,-0.0857092,-0.049895,-0.0566293,0.0538744,-0.0270902,0.0973412,0.0385691,0.0177541,0.0224987,-0.134074,-0.0808115,0.088158,0.206927,-0.046834,-0.105912,-0.0139277,0.0367325,0.0544866,0.0489767,0.0535683,0.0348959,-0.0184428,0.0612209,0.0113259,-0.0261719,0.0520377,-0.00415154,-0.0215804,-0.00367325,0.0725467,0.00681082,-0.0252536,0.0808115,0.0419363,0.0224987,0.0332123,0.0118615,-0.0443851,-0.0221926,-0.00126268,0.0480584,-0.0471401,0.0355081,0.0077674
woodpecker	-0.062105,0.032008,-0.0702265,-0.00836029,-0.0375019,-0.00704653,-0.0563723,0.0105698,0.127076,0.0367853,0.0266335,-0.0807365,0.00931576,-0.00627022,0.0697487,0.00223936,-0.0267529,-0.0102115,0.0332023,-0.0465788,-0.0179149,-0.0191092,-0.0181538,0.0200647,-0.120866,-0.0425181,-0.130898,-0.0649714,-0.00133615,0.117044,-0.0302165,0.0678378,-0.0707042,-0.0570889,-0.00853944,-0.053267,0.0702265,0.032008,0.0268724,0.0582832,0.0458622,0.0360687,0.0644937,0.0955462,0.0351132,-0.104145,0.0427569,-0.0250809,0.0406071,0.03368,-0.0475342,-0.0406071,0.0291416,-0.00943519,0.0299776,0.0635382,-0.0123613,-0.000839762,0.0955462,-0.0401294,0.0898134,-0.0410849,-0.00265738,-0.0305748,-0.0616273,-0.0740483,-0.00734511,-0.0668823,0.0261558,-0.0513561,0.0187509,-0.116566,0.0453844,-0.01684,-0.0716597,0.0855139,-0.0375019,-0.0425181,-0.0257975,-0.0324857,-0.0783479,0.0194675,0.05685,-0.0597164,-0.0170789,0.060433,0.0226922,0.0353521,0.0494452,-0.0185121,-0.0773924,0.040846,-0.0218562,0.0274695,-0.0439513,-0.0226922,-0.0205424,-0.0578055,-0.0649714,-0.0518338,0.00567306,-0.111789,0.0179149,-0.044429,0.0965017,-0.040846,0.069271,0.0836029,-0.0305748,-0.0451456,-0.152874,0.0262752,0.0453844,0.156696,0.0561334,-0.0158846,0.0410849,0.0182732,-0.081692,0.00100025,0.0874248,-0.019587,-0.120388,-0.0112864,-0.0201841,0.118,0.0203036,0.0735706,-0.0191092,0.0778702,-0.0142125,-0.094113,-0.0197064,0.0287833,0.0125404,-0.0482508,-0.0697487,-0.0136153,0.123255,0.086947,0.0317691,-0.074526,0.00231401,0.0687933,0.00716597,0.00579249,-0.0425181,0.00776313,-0.0769147,-0.0578055,0.1094,-0.00937547,-0.107489,0.0544613,0.0398905,0.020423,0.0391739,-0.0121821,0.0265141,-0.000362031,-0.00367256,0.0200647,0.0580443,-0.00157502,0.0106892,-0.0687933,0.0348744,-0.0226922,-0.0253197,0.0726151,0.0499229,0.0659269,-0.0625828,0.0154068,-0.0735706,0.00991292,-0.0247226,0.0358298,0.0236477,-0.0511172,-0.115133,-0.114655,0.0542225,-0.0367853,-0.0175566,0.0367853,-0.0499229,-0.0308137,0.00459816,0.0504006,-0.0769147,-0.100801,-0.0993681,-0.0917244,0.0365464,0.0902912,0.0535059,-0.0489674,-0.0687933,0.0140931,0.104145,-0.0213785,-0.00865887,-0.0269918,0.0649714,0.111789,0.122299,-0.0494452,-0.0162429,-0.0127196,-0.129943,-0.0898134,-0.0668823,-0.0812143,-0.0246031,0.128987,-0.000556109,-0.0525504,-0.0599552,0.0575666,0.0116447,-0.0960239,-0.0161234,0.074526,-0.00234387,-0.0291416,0.0597164,0.0360687,0.0484897,0.000962927,-0.0353521,-0.088858,-0.0113461,-0.0425181,0.012003,-0.0427569,-0.0394128,-0.0566111,0.0556557,-0.0506395,0.0659269,-0.094113,-0.125166,-0.0458622,0.0609107,0.0023588,0.115611,-0.0211396,0.0297388,0.0317691,-0.0998458,-0.0300971,-0.0308137,-0.0348744,0.0310525,0.0185121,-0.117044,-0.00192585,-0.00597164,-0.0788256,-0.0556557,0.0401294,0.0398905,0.00647923,-0.0494452,0.0898134,-0.0850361,-0.0394128,-0.0201841,-0.0329634,-0.00865887,0.0599552,-0.0211396,0.0113461,0.0797811,0.016004,-0.0207813,-0.0403683,-0.0136153,0.00725554,0.013257,-0.0609107,0.110356,0.0902912,-0.00206021,-0.0537447,-0.0148694,-0.0386962,0.0649714,0.0198258,-0.0413237,0.0418015,-0.0211396,-0.01684,0.0773924,0.000358298,0.00725554,0.0266335,0.0716597,0.0649714
rhubarb	-0.0835702,-0.00758767,-0.000873464,0.0751003,-0.00811704,0.0201867,0.00811704,-0.0361385,-0.107851,0.0239982,0.0465848,-0.134955,-0.00797588,0.059572,-0.029786,-0.0160929,-0.0300683,0.00419969,0.06296,-0.07143,-0.0556194,0.119144,0.066348,-0.0429144,0.00885816,0.0256922,-0.0252687,0.0971222,-0.06296,0.0347268,-0.0183516,-0.010658,-0.0221631,-0.0703006,-0.0516667,0.00691713,0.0326093,-0.120273,0.066348,0.0756649,0.0909109,-0.067195,-0.00193221,-0.0559017,-0.0361385,-0.0564664,-0.0897815,0.00684655,-0.0420674,0.0120697,-0.0584427,-0.0143989,-0.0533607,0.0807469,-0.061266,-0.0210337,0.0116462,-0.0358562,-0.058725,-0.00674067,-0.027245,0.0343033,-0.0392441,-0.034868,-0.0268215,-0.0869582,-0.0807469,-0.128743,0.0406558,0.0345857,0.0657833,0.00114697,-0.0204691,-0.0381148,-0.0189162,-0.0116462,-0.0717123,-0.0525137,0.00139401,-0.0592897,-0.0575957,0.00716417,0.0719946,-0.0544901,-0.0105169,-0.0057878,-0.0334563,0.161494,-0.0375501,-0.0139048,-0.062113,-0.0734063,0.0502551,-0.0522314,-0.0417851,-0.0468671,-0.0232924,-0.0694536,0.0522314,-0.0767943,-0.0745356,-0.0496904,0.0564664,0.06296,-0.0338798,0.0254099,0.0381148,0.0988162,-0.0790529,-0.0279509,-0.0485611,-0.0110815,0.00333505,-0.000996984,-0.00490552,-0.0544901,0.0734063,0.0179281,-0.0200456,-0.061266,0.00825821,0.0302095,-0.0303507,0.0127755,0.0350092,-0.0389618,-0.0796176,0.0183516,0.0317623,0.0351503,-0.131002,-0.0338798,-0.0220219,0.0505374,0.014046,0.140037,-0.0146107,-0.0412205,0.0666303,0.0420674,-0.00419969,-0.0153165,-0.0283744,-0.00298213,0.0717123,-0.0415028,0.00727005,0.0607014,-0.169399,-0.0300683,0.0259745,-0.0649363,-0.033174,0.0409381,-0.0319035,-0.0999455,-0.0172222,-0.0988162,-0.0971222,0.0175752,-0.0669127,-0.00117344,0.0767943,-0.0124226,0.029786,-0.017434,0.0183516,-0.00762296,-0.0208926,0.0649363,-0.0403735,0.0178575,-0.0683243,-0.0700183,-0.114062,-0.112933,0.0239982,0.0334563,-0.0412205,0.0309153,-0.0420674,-0.0120697,-0.0335975,0.0217396,0.0074465,-0.0448908,-0.0686066,0.0474318,-0.0232924,0.00367031,-0.0352915,0.0352915,-0.0163752,-0.0124932,0.0948635,0.0875229,0.0522314,-0.0163047,-0.0290802,-0.0184927,-0.0544901,0.00494081,0.00243511,0.0400911,-0.0448908,0.0273862,0.0448908,0.014893,0.0372678,-0.0191986,-0.131002,-0.0415028,-0.00727005,0.0316212,-0.0494081,-0.0224454,-0.0703006,-0.0310565,0.196503,0.101639,0.108415,-0.00839937,0.0316212,0.0218807,0.00554076,0.0127049,0.0477141,-0.0496904,-0.0179281,0.0200456,-0.0359973,0.0156694,0.0556194,0.150201,-0.060419,-0.162623,0.0180692,-0.0892169,0.0479964,0.0213161,-0.0223042,0.0170811,0.0045526,-0.0897815,-0.0386795,0.0113639,0.011505,-0.0213161,0.0194809,0.0225866,-0.0858289,-0.0623953,0.107851,0.00340563,0.070583,-0.0403735,-0.0846996,-0.066348,-0.0745356,0.0412205,0.0194809,0.0686066,-0.0869582,0.0259745,-0.0141872,-0.0389618,-0.0880875,-0.0364208,-0.0266804,-0.120273,0.0457378,0.0677596,0.0296448,-0.0147518,0.106157,-0.0751003,0.0677596,-0.0412205,-0.0728416,0.0303507,0.0354327,-0.0378325,0.102204,-0.0171517,0.0618307,-0.0420674,0.0307742,0.0468671,-0.0852642,0.160365,0.00347621,0.00709359,-0.0694536,-0.0431968,0.0378325,-0.0266804,0.0237159,0.0095287,0.106157,0.0643717
clamp	-0.0222225,0.0587728,0.010161,-0.0801181,0.0080776,0.0444451,-0.12047,-0.0244156,-0.0072735,-0.0432755,0.017471,0.0970774,-0.144447,0.0421059,-0.00185492,-0.0194447,-0.0169593,0.0070542,-0.0672524,0.0109651,0.0605272,-0.0883054,0.0037464,0.0935686,0.0304098,0.0285092,-0.0163745,0.0497083,0.0558488,-0.00124271,5.51109e-05,-0.0745625,0.0657904,-0.0576032,0.0795333,0.029825,0.116376,0.0766093,-0.064036,-0.010892,0.0412287,-0.0270472,0.0345034,0.0461995,-0.0587728,-0.0242694,0.0119885,0.00924721,0.0514627,-0.0988318,-0.0197371,-0.0326028,0.0450299,-0.0964926,0.222225,-0.00639629,-0.105849,-0.0216377,-0.0311408,0.131581,-0.0456147,-0.0383047,-0.111698,-0.0502931,-0.0441527,-0.136844,-0.05965,0.0326028,-0.0435679,0.0760245,0.0266086,-0.0871358,0.0191523,0.0307022,-0.0473691,-0.0853814,-0.00445913,-0.00314332,0.105849,-0.0900598,-0.0142546,0.0339186,-0.0333338,0.0147663,0.0188599,0.00654249,0.000753849,-0.000794968,-0.0409363,-0.102341,0.0324566,0.0397667,-0.026901,-0.00497083,-0.0361116,0.00654249,-0.0429831,-0.0104534,0.0739777,0.0301174,-0.0713461,-0.0209067,-0.0830421,-0.121639,0.0426907,0.0842118,0.115206,-0.0391819,0.0459071,-0.0260238,-0.0136698,-0.121639,0.05965,-0.0412287,-0.0599424,-0.034942,-0.0280706,0.018202,0.0372812,-0.0836269,-0.0226611,0.0508779,0.0713461,-0.123394,0.00789485,-0.00126098,-0.0859662,0.0168862,0.0616968,-0.0318718,0.0818725,-0.0540944,-0.0847966,-0.0383047,0.0121347,-0.0500007,0.0139622,0.0304098,-0.0138891,0.0649132,0.0707613,0.0546792,-0.0222225,-0.0175441,-0.0391819,0.0476615,-0.0619892,0.034942,-0.058188,0.0652056,0.0464919,-0.102925,-0.0136698,0.0121347,-0.000274127,0.0380123,-0.0500007,-0.0573108,0.00668869,0.0032347,0.0330414,-0.0122809,-0.0590652,0.0108189,0.0318718,0.00471498,0.0540944,0.0347958,-0.03348,-0.0144008,0.0111113,0.0074197,-0.0564336,-0.00804105,0.0307022,0.0540944,0.0385971,-0.0900598,-0.0608196,0.0754397,0.0103803,-0.0347958,0.0666676,-0.0558488,0.0286554,-0.0959078,0.0435679,-0.0643284,0.107019,0.0479539,0.0124271,0.0570184,0.0207605,-0.0307022,-0.183628,-0.0766093,-0.0649132,-0.0380123,-0.0155704,-0.0377198,0.0649132,0.016009,-0.114622,0.133335,-0.00932031,-0.0701765,-0.0716385,-0.00104168,0.0228074,-0.0558488,0.02617,0.0526323,-0.0883054,-0.0330414,0.00475153,-0.0564336,-0.0742701,-0.0285092,-0.0385971,0.055264,-0.0929838,0.0450299,-0.0663752,0.00844311,-0.00361847,-0.0137429,-0.0470767,-0.0288016,0.0505855,-0.0678372,-0.101756,0.0388895,0.0168131,0.0355268,0.0187137,0.0264624,0.0380123,-0.00515358,-0.0154242,0.00297884,0.0164476,-0.0264624,0.00168131,0.00376467,-0.00745625,-0.00301539,-0.0564336,0.138599,0.116376,0.00158994,-0.0643284,0.0343572,0.0511703,0.0391819,0.0450299,0.100001,-0.0146201,-0.0695917,0.0532172,-0.0219301,0.0801181,-0.00434948,-0.119885,-0.0185675,-0.0652056,0.00917411,-0.0672524,0.0719309,-0.0459071,0.0106727,0.00891826,0.0698841,-0.0964926,0.0859662,0.0467843,-0.0211991,-0.0517551,-0.0288016,0.028363,0.0038926,-0.0748549,-0.0409363,-0.0233922,-0.0177634,0.0307022,-0.00643284,-0.0321642,-0.0532172,-0.121639,0.0271934,-0.017471,0.0485387,-0.0361116,0.102341,-0.0400591,-0.0912294,0.0118423,-0.00515358,0.0112575,0.0079314
nightgown	0.0215695,-0.0631108,-0.0362155,0.0468671,0.025697,-0.0274279,0.0194392,-0.0609805,0.0171757,0.0332863,-0.025697,-0.119831,-0.00182242,0.0428727,-0.0708332,-0.00179746,0.00369478,-0.0426065,0.0100525,0.00112341,0.0254307,-0.0687029,0.0420739,0.0221021,0.00805528,-0.00482651,-0.051394,0.0162437,-0.00918702,-0.0575187,-0.0729636,-0.0505952,-0.0636434,0.0173089,-0.0343515,-0.0303571,0.0235667,0.0107182,-0.0655074,0.08255,-0.0655074,0.0466008,0.0115836,-0.113972,0.0181077,0.0107848,-0.0612468,-0.0326206,0.0609805,0.0734961,-0.00932016,-0.00475994,0.0217027,-0.00196389,-0.047666,-0.0473997,0.0380795,-0.0391447,-0.0370144,0.0276942,-0.00277941,0.0830826,0.0032787,0.0308897,-0.00675712,0.0878758,-0.0225015,-0.0131814,0.104918,0.00918702,0.218358,0.0201049,-0.0734961,0.0123825,-0.092669,0.0703007,0.171491,-0.0947994,0.139536,0.00818843,0.0814848,-0.0221021,-0.0334194,0.00367814,-0.100125,0.131547,0.00301241,0.067904,0.0263627,0.00489308,-0.0729636,-0.0111176,-0.0271616,0.00334527,0.0163103,-0.034884,0.00938673,-0.0199718,-0.0471334,-0.0450031,-0.0857455,-0.0625782,0.0607142,-0.0846803,-0.0278273,0.034884,0.159774,0.051394,-0.0207706,0.0583176,0.00334527,0.0884084,0.0636434,0.0242324,-0.0190398,-0.0729636,-0.0244987,-0.0197055,0.0500626,0.118233,0.0288925,-0.0296914,-0.0118499,-0.0263627,0.118233,0.0125156,0.00374471,0.0942668,-0.0639097,0.0905387,-0.0873432,0.0243656,-0.0187735,0.0426065,-0.0298245,0.0974623,-0.0050928,-0.0436716,0.0370144,0.0335526,0.0116502,-0.018374,0.0963971,0.0356829,-0.0356829,0.0537906,-0.0364818,0.010585,0.00705669,-0.0404761,0.116103,0.011051,0.10119,0.0335526,0.0255639,-0.0354166,-0.0599153,0.0450031,-0.140601,0.0905387,0.0324874,0.0236998,0.103321,-0.0262296,-0.0225015,-0.00469337,-0.00319548,0.00685698,0.0267622,0.0583176,0.0468671,0.105451,-0.0118499,0.00615796,-0.161905,-0.0756265,0.128352,0.00595825,-0.00635768,-0.0286262,-0.0793545,-0.0132479,0.0089873,0.00629111,-0.0264959,-0.0553884,0.00612468,0.11557,-0.0516603,0.0356829,0.0270285,-0.0370144,0.0713658,0.113972,0.0692355,0.106516,-0.0271616,-0.0529918,-0.0213032,0.0129151,-0.0521929,-0.039411,-0.0362155,-0.0894736,0.0199718,-0.0168429,0.00665726,0.0479323,0.0287594,-0.0318217,-0.0543232,-0.00775571,-0.0553884,-0.0798871,-0.0508615,-0.0194392,-0.0564536,0.0846803,-0.0239661,0.0820174,-0.0346177,0.032088,0.0591165,0.0170426,-0.0215695,-0.039411,0.112375,0.0145128,-0.0756265,0.0583176,0.0644423,0.0351503,-0.021969,-0.0750939,-0.0468671,0.00675712,-0.00138138,0.0264959,0.0284931,0.0162437,0.0947994,0.0189066,-0.0692355,-0.0910713,0.0750939,-0.0150454,0.0295582,-0.0260965,-0.0572524,-0.047666,-0.0334194,0.0120496,0.0868106,0.11557,-0.0201049,-0.0905387,0.0236998,0.0351503,-0.00409421,-0.0814848,-0.0326206,-0.00685698,-0.0782894,-0.0756265,-0.00978617,0.08255,-0.0147125,0.0270285,-0.0189066,-0.0351503,-0.0985274,0.0772242,-0.00163103,0.107581,0.0804197,0.0122494,0.0455357,-0.00109845,0.0511277,0.016976,0.0244987,0.0455357,0.0905387,0.0102522,-0.023833,-0.021969,0.067904,-0.0636434,0.0314223,0.0471334,-0.112375,0.034884,-0.0500626,0.0287594,0.00835486,-0.0529918,0.0159108,-0.00925359,0.0463345,0.0974623
leotards	-0.00525571,-0.110006,0.0391368,0.120055,-0.0531521,-0.0505077,0.0272371,-0.0883223,-0.0756293,0.0431034,0.00998254,-0.0349058,0.00938755,0.0957266,-0.129046,0.0629363,-0.04469,0.000896611,0.0083298,-0.0465411,0.0107097,-0.0497144,-0.0388724,-0.00352033,-0.107362,-0.0433679,-0.0729849,-0.0846202,-0.00208245,-0.0658451,0.0128914,0.0793314,0.0751004,-0.0318648,-0.036228,-0.0819758,0.0713983,0.0338481,0.0475989,0.0136186,-0.0862068,-0.00214856,0.020494,-0.0867357,0.00414837,0.0128914,-0.0200973,-0.0740427,0.063994,0.0872646,0.0207584,0.0312037,-0.0114369,0.062143,0.04707,-0.0436323,0.129575,-0.0207584,-0.0531521,-0.0267083,0.0202295,-0.0372858,0.0293526,0.0594986,-0.036228,0.00664401,-0.089909,0.0772159,0.0267083,0.0761582,0.0354347,0.0136847,-0.118997,0.0888512,-0.0655807,-0.0174529,0.103131,-0.130104,0.0179818,0.015668,-0.00998254,-0.0267083,-0.0936111,0.020494,-0.116353,0.0330548,-0.0534165,0.0576475,0.0520943,-0.0356991,-0.072456,0.026576,-0.027766,-0.0351703,-0.0191718,-0.0761582,-0.0200973,-0.0359636,-0.0703405,-0.0222128,-0.00608208,-0.00469378,0.0281627,0.0178496,-0.0634652,0.057912,0.0978421,-0.0520943,0.0141474,-0.00710677,-0.00631346,-0.0105775,0.0423101,0.147028,-0.0536809,0.0130897,0.0166596,-0.0322615,0.0438967,0.0039831,-0.0380791,-0.0594986,-0.0415168,-0.010247,0.10842,0.0835624,-0.127459,0.0534165,0.0761582,0.0489211,-0.055532,-0.00667706,0.04469,0.0481277,0.0920245,0.104189,0.0576475,-0.00221467,-0.00618124,-0.0306748,0.0401946,-0.0143458,0.066374,0.0584408,-0.0171885,0.103131,0.0571186,0.027766,-0.0145441,0.0452189,0.128517,0.00305757,0.0624074,0.0187751,0.0920245,0.0391368,-0.0862068,-0.00707372,0.0444256,0.0425745,0.0425745,0.000710677,0.089909,0.0729849,0.0156019,-0.0520943,0.00763565,0.0230061,-0.0835624,0.0661095,-0.0394013,-0.125344,-0.013288,0.187222,0.0354347,-0.0478633,-0.0116353,-0.0523588,0.0692828,-0.0692828,-0.0388724,0.00251216,-0.0284271,0.00727205,0.020494,-0.0745716,0.00104949,-0.00282618,0.055532,0.00552015,0.0600275,-0.0364925,0.0199651,0.0177174,-0.0111725,-0.0248572,0.0326581,-0.0425745,-0.0227417,-0.022345,0.0375502,-0.00604902,-0.0613496,-0.0239317,-0.0220806,-0.0218161,-0.068225,-0.0478633,-0.0475989,-0.027766,-0.0788026,-0.0203617,0.0199651,0.0370213,-0.00233036,-0.0650518,-0.0505077,0.126401,0.0212873,-0.068225,-0.0766871,0.106304,0.0222128,0.0273693,-0.00743732,-1.36222e-05,-0.0327903,-0.127988,-0.0877935,-0.0444256,0.0326581,0.0441612,-0.0253861,-0.00892479,0.0909667,0.0497144,-0.0399302,-0.0531521,0.111064,-0.0777448,0.0600275,0.0560609,-0.0544743,-0.0145441,-0.0284271,-0.0642585,0.0261794,0.051301,-0.0581764,-0.013883,-0.0244605,0.0378147,0.0973132,0.172414,0.00991643,-0.0062143,0.0294849,-0.00532182,-0.018114,0.0284271,0.04469,0.026576,0.0140813,-0.0809181,-0.0137508,0.0483922,-0.0489211,0.09414,0.000561931,0.00770176,-0.0520943,0.112122,-0.0174529,0.0653162,0.00918923,-0.0367569,-0.0671673,-0.00446239,-0.0356991,0.0409879,-0.0145441,0.0713983,0.0936111,-0.033187,0.00262785,0.00224772,0.0999576,0.0285593,0.0745716,-0.0321292,-0.0708694,-0.0244605,-0.0195684,-0.0164613,0.0255183,-0.0936111,0.110006,0.0557964,-0.0230061,0.0751004
rifle	-0.0337867,-0.0711455,0.038103,0.0302145,0.0193492,-0.044652,-0.0586429,-0.0547731,-0.0645965,0.0586429,-0.0130235,-0.0314052,0.0293215,0.0221772,0.0523917,-0.0239632,-0.0244098,0.0726339,-0.0815643,-0.0517963,-0.122644,-0.0369123,-0.0625128,0.0803736,-0.139314,0.0270889,-0.0705501,0.0568569,0.0140654,-0.033489,0.0589406,-0.0523917,0.03721,-0.0708478,-0.0291726,0.0773968,0.0145863,0.0263447,-0.0140654,-0.00989786,-0.045545,-0.00710711,0.00426054,0.0309587,0.0143631,-0.0928761,0.0437589,0.028875,0.00502335,0.0278331,-0.0702525,-0.0964483,-0.108355,-0.00279075,-0.0242609,0.0168189,-0.0425682,-0.0063257,-0.00318145,0.00792573,-0.129193,-0.00197213,-0.044652,0.114309,-0.00457683,-0.0693594,0.0946622,-0.0702525,-0.0340843,0.0192004,-0.052094,-0.0392937,-0.0538801,-0.0266424,-0.0250051,-0.00989786,0.0910901,-0.0133212,-0.119667,0.0690617,-0.0264935,-0.0875179,-0.0580476,0.00866993,-0.00640012,0.0663826,-0.104783,-0.0363169,0.0290238,-0.0562615,-0.0509033,-0.0321494,0.0389961,0.0586429,-0.0211353,0.00680943,-0.00524661,-0.0616197,0.0173399,-0.0622151,0.0711455,0.0738246,0.000527917,-0.116095,0.128002,-0.0115351,0.0696571,0.0887086,-0.0113118,-0.10002,0.017191,0.0928761,0.0464381,-0.155984,0.0349774,0.028875,0.0416752,-0.00613965,-0.0276842,-0.0946622,-0.0631081,0.0580476,-0.0233679,-0.0690617,0.0096746,0.0562615,-0.0904947,0.0276842,-0.0631081,0.00325587,0.00197213,-0.0464381,-0.0452473,0.0559638,-0.0363169,-0.0263447,0.0488195,-0.0428659,0.0535824,0.0845411,-0.0361681,-0.0464381,0.0898993,-0.0440566,-0.0180096,-0.075313,-0.103593,0.0309587,0.0173399,-0.0461404,0.10002,-0.0476288,0.082755,-0.0199446,0.0583453,0.0705501,0.102402,0.0199446,-0.0378053,0.0345309,0.00362797,-0.000184887,-0.00640012,-0.0464381,0.0690617,-0.0114607,0.0320006,0.014884,0.0123537,0.0833504,-0.0135444,-0.0898993,-0.200041,-0.00314424,-0.0586429,0.00342332,0.0138421,0.0625128,-0.0348286,-0.0199446,0.0250051,0.0720385,0.10002,0.0151817,0.0168189,-0.00777689,-0.0328936,-0.117286,0.059536,0.0904947,-0.0642989,-0.012577,-0.0398891,-0.0192004,0.0389961,0.0143631,-0.0364658,0.0230702,1.0974e-05,-0.007442,-0.0500102,-0.0160747,-0.116095,0.0467357,-0.0708478,-0.0300657,-0.0205399,-0.130384,-0.0233679,-0.0110886,0.0179352,0.0355727,0.0112374,-0.0550708,-0.0470334,0.045545,0.0348286,0.0018605,-0.0281308,-0.0562615,-0.0589406,-0.00104653,-0.034382,-0.0130979,0.108951,0.0081862,0.0881133,0.0309587,-0.013991,0.0293215,-0.0168933,0.131575,-0.0116839,-0.015777,-0.0491172,0.059536,0.0785875,0.0470334,0.0348286,-0.0238144,-0.0654896,0.00029768,0.0311076,0.0506056,-0.0797782,0.0714432,0.00498614,0.00167445,-0.0640012,0.0768014,0.0203911,0.0123537,0.0845411,0.0762061,0.00160003,0.155984,0.0176375,-0.00288377,0.0702525,-0.0726339,-0.0093025,-0.0488195,0.0654896,-0.0839457,0.0952576,0.0857318,-0.0367635,0.111332,-0.0321494,0.052094,-0.0657873,0.0479265,-0.0657873,-0.082755,0.0153305,-0.0279819,-0.0687641,-0.0267912,-0.0467357,0.102997,-0.0358704,-0.0361681,-0.0154794,-0.0133956,-0.0690617,-0.0747177,-0.0203911,0.013991,0.112523,0.00628849,0.0785875,0.0131723,-0.0129491,0.0681687,-0.034382,-0.00494893,0.0293215,0.0821597,0.0161491,0.0503079
rock	0.0389342,0.00216549,-0.00674204,0.0682241,-0.023932,-0.0423275,-0.00359427,-0.143592,0.00366124,0.0335763,-0.0225032,-0.0166988,0.0335763,0.0269682,-0.0314331,-0.121446,-0.0564367,0.0457209,-0.0885842,0.00553651,-0.060723,0.0348264,-0.0746536,-0.0714388,-0.0117874,0.0312545,-0.0371482,0.0978712,0.0921561,-0.115017,-0.00602765,0.0535791,-0.0325047,0.0650093,0.00121669,0.0578655,0.108587,0.00674204,0.112159,-0.0500072,-0.0492928,-0.12859,0.113588,0.0242892,0.0147343,-0.0013339,-0.0046212,0.0191099,0.0109837,0.0215209,-0.014645,0.0475068,-0.0546507,-0.03947,0.0475068,0.0732248,-0.00395146,0.0133948,-0.0492928,-0.00651879,-0.0596514,-0.0535791,-0.0308973,-0.0653665,-0.0244678,-0.0703673,0.0696529,-0.00754573,-0.0116088,0.0258966,0.0246464,-0.141449,0.0430419,0.0228604,-0.0696529,-0.0153593,-0.0145557,0.0403629,-0.0151808,-0.0921561,-0.0212531,-0.0423275,0.0175918,-0.0703673,-0.00946565,-0.0542935,-0.0193778,0.0138413,0.0285755,-0.035005,-0.0446493,-0.0500072,0.105729,0.0244678,-0.0446493,0.0457209,0.0985856,-0.0371482,-0.00790292,-0.0921561,-0.0233962,0.0603658,0.0255394,0.0130376,-0.106444,0.0326833,0.086441,-0.137877,0.0314331,-0.106444,-0.0485784,-0.0778683,-0.0416131,-0.00593835,0.00305848,0.0860838,-0.0426847,0.084655,-0.00560348,0.0610802,0.0600086,-0.0707245,-0.0209852,0.03947,0.0857266,-0.0244678,-0.019735,-0.0760824,-0.00629555,-0.0903701,-0.0242892,-0.0564367,0.126447,0.0835834,0.0392914,0.0401843,0.0417917,-0.108587,0.0216995,0.163595,-0.0121446,-0.064295,-0.0585798,0.0821547,0.0305401,-0.0116981,0.0675097,-0.0405415,-0.0835834,0.0528647,0.0401843,-0.120017,-0.0319689,0.0985856,-0.0353622,0.0106265,-0.064295,-0.023932,-0.0332191,-0.0621518,0.000260919,-0.0208066,0.0211638,0.0542935,0.0211638,-0.0244678,-0.0821547,-0.075368,-0.123589,0.0348264,-0.0450065,-0.00848336,0.0796543,0.0814403,0.0657237,-0.0405415,0.0542935,0.0232176,-0.0578655,0.0517932,0.034112,0.0298257,-0.026611,0.0592942,0.00395146,0.0296471,0.00484445,-0.0653665,0.0950137,0.0416131,0.0328619,-0.0115195,0.0600086,-0.0273254,-0.051436,0.0971568,0.0528647,0.0430419,-0.0401843,0.0382198,0.0921561,0.0471496,-0.0678669,-0.0578655,0.0650093,-0.0660809,0.00714388,-0.0198243,-0.0471496,0.0276825,0.0457209,0.0610802,0.00700994,-0.00651879,-0.0328619,-0.058937,0.0138413,0.0014511,-0.0282183,-0.0675097,0.0228604,-0.051436,0.0814403,0.0348264,0.0421489,0.0553651,0.0421489,0.0139306,0.0220567,0.0344692,-0.0276825,-0.0355408,-0.0871554,0.023932,0.0707245,0.0112516,-0.000396262,-0.062509,0.0464352,-0.0446493,0.0635806,-0.121446,-0.0317903,-0.0550079,0.0283969,-0.0578655,0.0853694,0.0375054,-0.0387556,-0.0582227,0.0357194,0.0392914,-0.0120553,0.064295,-0.00310312,-0.00817082,-0.0714388,-0.0319689,0.0330405,-0.0810831,0.0380412,-0.0355408,-0.0667953,0.0173239,-0.0130376,0.162166,-0.0935849,-0.034112,0.0910845,-0.0857266,-0.0135734,-0.027504,0.127161,0.0269682,0.0475068,0.0782255,0.0045319,0.0219674,-0.00199806,-0.0807259,-0.0435777,0.0387556,0.0710816,0.00665274,-0.000230223,-0.147164,-0.0319689,-0.0130376,0.00674204,0.125732,0.0355408,0.0628662,-0.110016,0.00540256,-0.0441135,-0.00294685,0.0260752,0.00964424,0.0298257,0.0335763
house	0.0678622,-0.0305591,0.0232881,-0.00816665,0.0396214,0.0110118,0.0318236,-0.0245526,0.0775568,0.0400429,0.0389892,-0.177875,-0.0358279,-0.0628042,-0.102426,-0.0159118,0.0377247,-0.0119602,0.000490658,0.0358279,0.154271,-0.112963,0.0322451,-0.0349849,-0.0101688,-0.0695483,-0.0206537,0.0800859,-0.0171763,-0.0682837,-0.0188623,-0.0480515,-0.0457332,0.042572,-0.0360386,-0.0552171,-0.0602752,-0.0805074,-0.024658,-0.0507913,-0.0573246,0.00671773,0.0581676,0.0362494,-0.0389892,-0.0178086,-0.108748,-0.0982106,-0.0286623,-0.0330881,0.0222344,0.025501,0.150899,-0.0491053,-0.0111172,-0.0855654,0.0191785,0.0474193,0.0448902,-0.0758708,0.0528988,0.0337204,0.0267655,0.0280301,-0.0750278,-0.00482096,0.0813504,0.0144365,-0.0185462,-0.0203376,0.125608,0.0181247,0.0687052,0.0528988,-0.110434,0.105376,0.0665977,-0.0149634,0.0535311,-0.0573246,0.0364601,0.0160172,-0.0455225,0.0423612,-0.00355645,0.0230774,-0.000849595,0.0389892,0.0564816,-0.00679676,-0.0103796,-0.0142258,-0.0243419,-0.134881,-0.0514236,0.0190731,-0.0788214,-0.09526,0.0362494,-0.0931525,-0.0691268,-0.0868299,0.0703913,-1.9758e-05,0.0183355,-0.0594321,-0.0113279,0.0661762,-0.0463655,-0.0581676,-0.00161357,-0.00655967,-0.0314021,0.0139097,0.0817719,-0.0345634,0.0628042,-0.041729,-0.0400429,0.00384623,-0.0184408,-0.0421505,0.0142258,-0.0343526,-0.0269763,0.0146473,0.00455752,-0.0556386,0.0474193,0.0817719,0.0657547,-0.0636472,-0.00166626,0.0758708,-0.0198107,-0.044258,0.0273978,-0.042572,0.0809289,0.0171763,-0.114649,-0.0535311,-0.0585891,0.00342472,0.0284516,0.00350376,-0.014015,-0.00447849,-0.00821934,-0.0354064,0.0889375,0.0606967,0.0834579,0.125608,-0.0396214,-0.0606967,-0.0758708,-0.0590106,0.0108537,-0.0251849,-0.0796644,0.134038,0.0309806,-0.0436257,0.0469978,-0.00964192,0.0649117,-0.0303483,0.0535311,0.0956815,-0.0851439,-0.0261333,-0.00185725,-0.0733418,-0.0628042,-0.0939955,0.106641,0.0286623,-0.0347741,0.154271,-0.0354064,-0.00339838,0.0469978,-0.022972,0.129823,-0.102426,0.0695483,0.0687052,0.0733418,-0.0410967,0.0224451,-0.0268709,-0.00381989,0.0202322,-0.0124344,0.0539526,0.0150688,0.0199161,0.00716558,-0.0413074,-0.0640687,-0.00711289,-0.096103,-0.108748,-0.0154903,-0.0109064,3.62231e-05,0.0301376,0.109591,-0.0142258,0.0284516,0.00271344,-0.0339311,-0.013014,-0.0408859,0.0539526,-0.0699698,0.109591,-0.142469,0.0278193,-0.00392526,0.0307698,0.00172553,-0.0190731,-0.0061645,-0.00410967,0.0507913,0.150899,-0.0125398,0.00806128,0.0149634,0.00816665,-0.0547956,0.0115914,-0.0461548,0.0518451,-0.0116441,-0.0219182,-0.0762923,0.0170709,0.0585891,-0.0415182,-0.0855654,-0.00806128,-0.0106957,-0.022972,0.0665977,0.0257118,0.0276086,-0.0266602,0.0145419,0.0758708,0.0284516,0.096103,-0.0556386,0.0199161,-0.111277,0.0292946,0.027187,-0.0499483,-0.0923095,-0.109591,0.0118021,-0.0202322,0.0598537,0.11212,-0.089359,-0.00416236,-0.0225505,-0.0031086,0.0366709,-0.0107484,0.0838794,-0.0318236,0.0526881,-0.0150688,0.0611182,-0.0598537,0.0328774,-0.0834579,0.0708128,-0.0120129,-0.00626988,0.0623827,0.0758708,-0.00737633,0.0547956,0.0146473,-0.0121183,0.0788214,-0.127294,0.0163333,-0.0703913,0.0750278,-0.0436257,-0.0644902,-0.0180193,0.00424139,-0.00213387,-0.0142258
tripod	0.00223107,0.011407,-0.0687102,0.0213378,-0.00952818,0.0206668,0.0684418,-0.0285845,0.0312685,-0.00872298,0.0472383,-0.0248269,-0.00852168,0.00486474,0.0234849,0.0106018,-0.0442859,-0.0518011,-0.0222771,-0.143862,0.0304633,0.0221429,-0.0520695,0.0186538,0.00523379,-0.0703206,-0.0609267,0.1342,0.0103334,-0.112728,-0.0536799,0.0323421,-0.0421387,-0.0488487,-0.00899138,-0.0526063,0.0221429,-0.0206668,0.00379114,-0.0571691,0.093403,0.0563639,0.143862,-0.0131516,0.0424071,-0.0307317,0.0143594,0.0110715,0.0912558,-0.0289871,-0.0713942,-0.153524,0.071931,0.00111553,0.0595847,0.0397231,0.093403,0.0257663,-0.0950134,-0.00345564,-0.085351,-0.0493855,-0.0724678,-0.00392534,0.0119438,-0.112191,-0.0480435,-0.0805198,0.0343551,0.0138897,0.0402599,0.0440175,-0.00781713,-0.0504591,-0.115949,0.0108031,-0.111654,-0.0534115,-0.0641475,-0.0735414,0.0944766,0.0496539,0.122927,0.00330467,-0.014762,0.0289871,-0.00865588,0.0144265,0.0156343,4.84901e-05,-0.0509959,0.0171776,-0.0544851,0.0273767,-0.00446214,-0.123464,0.079983,-0.0708574,0.0713942,-0.0869614,-0.0373075,-0.0314027,0.0507275,-0.00229817,0.0164395,0.101992,0.065221,-0.0287187,0.0563639,-0.0617319,-0.00151813,-0.0740782,0.0389179,-0.0319395,-0.0445543,-0.0569007,-0.0159698,0.0273767,-0.0687102,-0.0410651,0.0144936,-0.074615,-0.0152317,0.0480435,-0.00758228,-0.0110044,-0.0558271,-0.00322079,-0.0244243,0.0625371,-0.0128161,-0.0280477,-0.155672,-0.0326105,0.0217403,0.0971606,-0.0289871,-0.0136213,-0.0300607,0.0539483,0.0756886,0.0250953,-0.0622687,0.066563,0.00899138,0.0124806,-0.0636107,-0.065221,0.0789094,0.0697838,0.0295239,-0.0842774,-0.00034808,0.00610609,0.0955502,0.0501907,-0.0684418,-0.0332815,-0.0195932,0.111654,-0.0587795,-0.0467015,0.00409309,0.00348919,0.0267057,0.0292555,0.0238875,-0.0217403,-0.119169,-0.0322079,0.0335499,0.0249611,-0.0209352,0.0762254,-0.0928662,-0.0324763,0.0805198,-0.0633423,-0.00768293,-0.0141581,-0.0944766,-0.00946108,0.0289871,-0.085351,-0.0485803,0.0536799,0.0319395,-0.0356971,0.019459,0.0485803,-0.0735414,-0.0601215,-0.0832038,0.000662611,-0.123464,0.0520695,-0.0713942,0.020801,0.0660262,0.018788,0.0248269,0.0896454,-0.114338,0.000763261,0.00738098,-0.0547535,-0.0646842,-0.00553574,0.0328789,-0.0213378,-0.0424071,0.085351,-0.067905,0.0252295,-0.082667,-0.113801,-0.0735414,0.0182512,-0.00205493,0.0582427,-0.00372404,0.0437491,0.0230823,-0.0394547,-0.0318053,0.0134871,-0.0221429,0.124001,0.0756886,-0.0276451,-0.0842774,0.00597189,0.0224113,-0.0383811,0.0336841,0.00640804,0.00885718,0.0660262,0.0160369,0.0832038,-0.00499894,0.0254979,0.00409309,-0.00999788,-0.00744808,-0.0488487,-0.100918,-0.0362339,0.0480435,-0.103065,-0.00556929,-0.0563639,-0.0464331,0.0124135,0.0359655,0.0582427,0.0391863,-0.0469699,0.0224113,-0.0485803,-0.0783726,0.00426084,-0.0456279,-0.113265,0.0169092,0.173923,0.0142252,-0.159966,-0.0928662,-0.0232165,0.0472383,0.00530089,0.0117425,0.0354287,0.079983,-0.0191906,0.0311343,-0.0399915,-0.0617319,0.0316711,0.00303627,0.0288529,0.125611,-0.00476409,-0.0448227,-0.00711258,-0.074615,-0.0491171,-0.010065,-0.0159027,-0.155672,0.0507275,-0.0730046,0.0730046,-0.0248269,-0.0230823,-0.00865588,-0.0177144,-0.0144265,0.0140239
spatula	-0.0507319,0.0292684,-0.084293,-0.0140488,-0.0242928,0.085854,0.0237074,0.0470246,-0.0815613,0.019122,-0.030244,0.0351221,0.00970735,-0.0417563,-0.0339514,0.0485856,0.00463416,0.100683,-0.0975614,-0.0124391,0.0454636,-0.0215611,0.0271221,0.0745369,-0.0999028,0.042927,-0.103025,0.0339514,-0.0101464,-0.0124879,-0.0753174,-0.0267318,0.0216586,0.0185367,0.0476099,0.0177562,0.106147,0.0924882,-0.00975614,-0.0261464,0.0932687,-0.00658539,0.0468295,0.0768783,-0.0233172,-0.102244,-0.0811711,0.066732,0.0558051,0.0608783,-0.11083,0.0546344,-0.00290245,-0.0694637,0.0478051,0.0435124,0.0331709,-0.0702442,-0.0189269,0.0156098,-0.0464392,0.00843906,0.0216586,-0.0374636,-0.0103415,-0.0694637,-0.0499514,-0.0177562,-0.0337562,0.0519026,0.0721954,-0.0714149,-0.0180489,-0.0201952,-0.0632198,-0.0403904,-0.030244,0.0247806,0.0310245,-0.11083,0.0355123,-0.044488,-0.00139025,-0.138147,0.0112196,0.0124879,-0.0608783,0.0226342,0.0491709,-0.0628295,-0.107708,-0.0227318,-0.0671222,0.0702442,-0.0207806,0.0690734,0.015122,-0.0133659,0.0116586,-0.00382928,-0.0741466,-0.0780491,-0.0702442,-0.135805,0.0558051,0.0277074,0.0417563,-0.00439026,0.0290733,-0.0831223,-0.0249757,-0.0279025,0.0960004,-0.0353172,-0.00746344,0.0259513,-0.0378538,-0.100683,-0.0846833,-0.152976,0.0846833,0.00829272,-0.0796101,-0.0971711,0.104586,0.0306343,-0.0310245,0.028683,-0.00814637,0.0147318,-0.00975614,-0.0489758,-0.135025,-0.0343416,-0.0236098,0.0917077,-0.00653661,-0.0698539,0.113171,0.0538539,0.106927,0.00465855,-0.0205854,-0.000320123,-0.00250001,-0.00995126,-0.00267074,0.0421465,-0.00465855,-0.00897564,0.0203903,-0.114732,-0.00873174,0.0749271,0.00770735,-0.0372684,-0.153757,0.0439026,-0.0585368,-0.00578051,0.0197074,-0.0116098,0.0425368,-0.0010061,0.0280977,-0.0917077,-0.060488,-0.0749271,-0.0435124,0.0487807,0.0209757,-0.0491709,0.00892686,0.0207806,-0.0470246,0.0565856,-0.0242928,-0.117854,-0.0156098,-0.0706344,0.0411709,0.00921955,0.0419514,0.0107805,0.0181464,0.0240977,-0.0223416,-0.0788296,-0.0581466,0.0290733,0.0017561,0.0407806,0.0721954,0.018244,-0.0335611,0.0230245,0.0241952,-0.113171,-0.0267318,-0.0213659,-0.0195123,0.0282928,-0.0632198,0.164684,-0.016683,5.67838e-05,-0.0597075,0.00458538,-0.0995126,0.0160976,-0.0487807,0.0737564,-0.0174635,0.0589271,0.0341465,-0.0481953,0.0472197,0.00215854,0.00648783,-0.00482929,0.023805,0.0589271,-0.00902443,0.00902443,0.0374636,0.068293,-0.028683,0.0172684,-0.0261464,-0.0277074,0.038244,0.0554149,-0.00980492,0.0310245,0.0831223,-0.0971711,0.0179513,0.00931711,-0.0213659,0.0702442,0.068293,-0.0612685,0.102244,-0.0489758,0.023122,-0.0134635,-0.0675125,0.0983418,0.0995126,-0.0647807,-0.0593173,-0.0214635,0.087415,0.0370733,0.0415611,0.0316099,-0.0784393,-0.00256099,0.0753174,-0.0854637,0.103025,0.0698539,-0.104586,-0.106927,-0.0714149,-0.014244,-0.0721954,-0.0417563,-0.00241464,0.0433172,0.0249757,-0.0120488,-0.0624393,0.0122927,0.0815613,-0.0538539,-0.0223416,-0.0325855,0.00843906,-0.0261464,-0.00257318,0.103025,0.016683,-0.0325855,0.00629271,-0.0312196,0.0139513,-0.0347318,-0.0714149,0.112391,-0.00687808,-0.0427319,-0.137366,0.0174635,0.0273172,-0.170147,-0.0323904,0.0835125,-0.0116098,0.000661588
pineapple	-0.0536362,-0.0149648,-0.00379676,0.0598591,-0.0119274,-0.0474132,0.0354117,-0.0551178,-0.018743,0.0468205,0.0300777,-0.0272626,-0.0924557,0.0339301,-0.0770464,0.00470428,-0.0847511,0.0453389,-0.0604518,0.00440794,-0.0122978,0.0755648,0.0699345,0.0134831,-0.018743,-0.0794171,0.0545252,0.0103716,0.0168909,0.0512655,0.0394122,-0.00681565,0.0205951,-0.0296332,0.0128164,0.0651931,0.0542288,-0.0216323,0.0254846,0.0317076,-0.0290406,-0.0137795,-0.0192616,0.0229658,-0.0823804,-0.149352,-0.0607481,-0.016076,0.0646005,0.0197061,-0.0758611,0.00903814,0.0900851,-0.0179281,-0.0306704,0.000666748,0.0388195,0.0426719,-0.0176318,-0.10668,-0.108458,0.0488948,0.0100753,0.0364489,-0.0311149,-0.0912704,-0.0616371,-0.181355,0.0666748,0.00588961,0.0527472,0.00903814,0.0376342,-0.016002,-0.0883071,-0.0382269,-0.0417829,-0.0545252,0.00355599,-0.0284479,-0.0136313,-0.0189653,-0.0536362,-0.0643041,0.0185208,-0.0468205,0.00109736,0.131572,-0.0331892,0.00755648,-0.0500802,0.0129645,0.0223731,-0.0429682,-0.0376342,0.0245956,-0.0182985,-0.000384306,0.147574,-0.0471169,-0.0737868,-0.0465242,0.0746758,0.0690455,-0.0260773,0.0268181,0.0894924,-0.00592665,-0.0524508,-0.0684528,-0.0628225,-0.095419,0.00955672,0.0256328,-0.0345227,0.0351154,0.0542288,-0.128608,0.0152611,-0.0693418,-0.00522286,0.00588961,-0.0213359,0.0145203,-0.0185208,0.0835657,0.00514878,-0.00948264,0.00581552,0.116162,-0.145203,0.0408939,-0.0245956,0.0527472,-0.0242993,0.105494,-0.109643,-0.0480059,0.0241511,-0.0462279,-0.0263736,-0.171873,-0.00514878,0.0906777,0.0373379,0.0447462,-0.0172614,0.0234103,-0.165946,0.0960117,0.0370416,0.00977897,-0.00203729,0.0749721,-0.109643,-0.0238548,-0.00488948,-0.101346,0.0109643,-0.0256328,-0.0328929,0.0179281,0.0640078,0.0607481,-0.0391159,-0.0354117,0.0219286,-0.0305222,-0.0269662,-0.00637115,-0.0057044,0.0625261,-0.0311149,6.13501e-05,-0.157649,-0.0117792,0.0414865,0.0388195,-0.00224101,0.0648968,-0.0770464,0.00896406,-0.143425,0.0835657,-0.0625261,-0.0302259,0.0147425,-0.0720088,0.0179281,0.0210396,-0.0321521,0.0192616,-0.0104457,-0.0746758,0.128608,0.116755,0.0438572,0.0474132,0.0168909,-0.114977,0.0343746,-0.0755648,-0.0165946,0.0527472,-0.0245956,-0.0397085,-0.0210396,0.0524508,0.00398197,-0.0678601,-0.0794171,-0.0619335,-0.0308186,0.0900851,0.0631188,-0.0194098,0.00327818,-0.00948264,0.0474132,0.0847511,0.0613408,0.0414865,-0.0669711,0.0111125,0.0145944,-0.0153352,-0.0137795,0.0268181,-0.00970489,0.0411902,-0.0123719,-0.0726014,-0.00903814,0.0693418,0.00585257,-0.0363007,0.0339301,0.0028522,0.0417829,-0.00688973,-0.00488948,-0.0503765,0.00814914,0.0363007,-0.0447462,-0.0888997,-0.0817878,0.01252,0.0112606,0.0234103,-0.0217804,0.0459315,0.152908,-0.0345227,0.00674156,-0.0871217,-0.00903814,-0.0829731,-0.00248178,-0.104902,0.0643041,0.0702308,-0.0817878,0.10016,-0.00692677,-0.102531,-0.0687491,0.0382269,-0.0631188,-0.0121496,-0.0315594,0.0459315,0.0977897,-0.0699345,0.0545252,-0.0223731,-0.0610445,-0.0518582,-0.0257809,0.0580812,-0.0371897,0.0096308,0.0192616,-0.0189653,-0.010742,-0.0681565,-0.00181504,-0.00477836,-0.0119274,0.0731941,-0.0651931,-0.0548215,-0.00681565,-0.0811951,0.103124,0.0228176,-0.0776391,0.00394493,0.0397085,0.104902
strawberry	-0.0349812,-0.158671,-0.0413414,-0.0359854,-0.0319684,-0.0200012,0.0213402,0.0103772,-0.0726404,0.00414251,-0.016319,-0.0686234,-0.0125531,-0.038496,0.00974954,-0.0137247,-0.0652759,0.0304621,0.0326379,0.100424,-0.0733098,0.111806,0.00585809,-0.0172395,0.0224281,0.0512165,-0.0806743,0.10578,0.00744815,0.0582462,-0.00243739,-0.0338096,0.111136,0.0562377,-0.0833523,0.0579114,0.0853608,-0.089043,0.0389982,-0.0692929,0.0538945,-0.137916,-0.0773268,-0.095738,-0.0220934,-0.0575767,-0.043852,0.0291231,-0.0316337,0.0281188,0.0239345,0.0441868,0.0696276,-0.0485385,0.024604,0.0733098,-0.0132226,-0.0488732,-0.137916,-0.10578,-0.041174,0.083687,0.00491661,-0.0348138,0.0538945,-0.0435173,0.0204196,0.00895451,0.016319,-0.0458605,0.0373244,-0.0672844,0.00627653,-0.024604,0.0131389,0.00303366,-0.00958217,0.010963,0.090382,-0.0559029,-0.115153,-0.04653,0.0435173,-0.0759878,0.0276167,0.00790843,-0.0383287,0.105111,0.0199175,-0.0820133,-0.090382,0.0134736,-0.00828502,-0.09306,0.0100424,-0.0252735,0.00958217,0.0239345,0.00215494,0.00320103,-0.0471995,-0.0117999,0.0323032,0.0297926,0.0699624,0.0318011,-0.0183275,-0.0363202,-0.122518,-0.0428478,-0.0709666,-0.0485385,0.0251061,-0.0602547,0.0589157,0.0143942,-0.0200849,-0.0666149,0.00619284,0.085026,-0.00619284,0.090382,0.0090382,-0.0756531,0.0369897,0.0230976,-0.102433,0.121848,-0.00468647,0.0646064,-0.104441,-0.0405045,-0.0579114,0.00573256,-0.104441,-0.0205033,-0.0144779,-0.0314663,0.0415088,-0.00214448,-0.090382,-0.0220934,-0.114484,-0.115153,0.0354833,-0.0229302,0.0692929,-0.0485385,-0.220934,0.00861977,0.0087453,-0.049208,0.0194154,0.0595852,-0.0160679,-0.0461952,0.00857792,-0.0282862,-0.0179927,-0.0416761,0.0314663,-0.0763226,0.04653,0.0746488,0.0990855,0.0274493,-0.0108793,-0.0103772,-0.0759878,-0.0110467,-0.023265,0.00682049,0.0636021,-0.00117162,-0.112475,0.0311316,0.00353578,0.0256082,-0.0585809,0.0656106,-0.0267799,0.00205033,-0.0359854,0.0649411,-0.0632674,-0.0542292,0.000137953,0.04653,-0.0455258,-0.0649411,-0.0589157,0.0266125,0.0964075,-0.0329727,-0.000737492,0.0215913,0.00382868,-0.0247714,0.027282,0.00966585,0.10645,-0.094399,-0.0318011,0.00820133,0.0309642,-0.0401698,0.0247714,-0.010963,-0.0328053,0.00899636,-0.054564,-0.0964075,0.051886,0.0159005,-0.0254409,0.023265,-0.050547,-0.00539781,0.0826828,-0.00795027,0.0183275,0.0816786,-0.099755,0.013641,0.0130552,0.0237671,0.00493754,0.0242692,0.0296252,0.000308596,-0.0599199,0.0251061,0.0806743,0.109797,0.00305458,-0.0386634,-0.0319684,-0.137247,0.0247714,-0.0289557,-0.0542292,-0.0106701,-0.00366131,-0.153984,-0.00117162,0.00753183,-0.0410067,0.0336422,-0.0116325,-0.00723893,-0.0676191,0.00200849,0.0856955,0.0706319,0.00606731,0.047869,0.0261104,-0.0826828,-0.053225,-0.043852,-0.0318011,-0.019248,-0.0763226,0.0776616,-0.0251061,-0.0485385,-0.109797,0.0485385,-0.0796701,0.0120509,0.0333074,0.0990855,-0.043852,0.049208,0.103102,0.0251061,-0.027282,-0.161349,-0.025943,-0.0448563,0.0174069,0.0400024,0.0733098,0.0746488,-0.0119672,-0.0639369,0.0114651,0.0177417,-0.102433,0.0609242,0.0803396,-0.0488732,-0.00656943,-0.0217586,0.0502122,-0.0301273,-0.0870345,-0.0145615,-0.0323032,-0.0194991
zucchini	-0.0629708,0.00911066,-0.0325572,0.0369786,-0.0332271,0.0214368,0.0318873,-0.0150728,-0.0651144,0.00149053,0.0600232,0.0209009,-0.0142019,0.0106514,-0.00971357,-0.00339975,0.000266914,0.0535921,-0.0455533,-0.0238485,-0.000206204,0.027198,0.114687,-0.0121252,-0.0158767,-0.113079,-0.020633,0.0661863,-8.11209e-05,-0.0466251,-0.0487688,-0.0578795,-0.0125272,0.0088427,-0.0243844,-0.0498407,0.0218388,-0.0266621,-0.0109194,-0.00448834,0.0616309,-0.0412659,-0.0372465,-0.0900348,-0.0369786,-0.103969,-0.0873552,-0.0162786,0.0037347,0.0372465,-0.0669902,0.0651144,0.034165,0.02693,-0.0142689,0.133444,0.0380504,-0.0209009,-0.0194271,0.0667222,0.0325572,0.0326912,-0.0412659,0.0439455,-0.0040529,-0.122726,-0.061363,-0.0318873,-0.00321553,0.00281359,0.0723494,0.027064,-0.00844076,-0.0624348,0.0444815,0.0317533,-0.142555,-0.0937862,-0.0707416,-0.054128,0.0214368,-0.0830678,0.104505,-0.0648465,-0.00552669,-0.0233126,-0.034299,0.105041,-0.0168815,-0.0292077,-0.0450174,-0.245452,-0.047965,-0.0498407,0.0530562,-0.0351028,-0.027466,0.00599562,-0.0116563,-0.101825,-0.102897,-0.0495727,-0.0288058,-0.0265281,-0.0428737,-0.0530562,0.0176854,-0.0616309,-0.114687,0.0180873,-0.0755649,-0.0560038,0.0549319,-0.0436776,0.0348349,-0.0825319,0.0127951,0.0305475,0.00227767,-0.0245184,0.0140009,-0.0209009,-0.033763,-0.0589513,0.0782445,-0.0103835,-0.0970017,0.116295,-0.0322893,0.0616309,-0.120582,-0.101825,0.0501086,0.0418019,-0.00623008,0.04073,-0.0229106,-0.0830678,0.0246524,-0.000420782,0.0385863,0.0525203,0.0214368,-0.0932503,0.101289,-0.0103835,-0.054128,0.102361,-0.0551999,-0.0554678,-0.040998,0.0336291,-0.0207669,0.0458213,0.00606261,-0.0916425,-0.0109864,-0.0624348,-0.159705,-0.0310834,-0.0712775,0.0329592,0.0793163,-0.00198458,0.0455533,-0.0592193,-0.00316528,0.0253223,0.033897,0.054664,-0.0377824,-0.00495727,0.0114553,0.000429156,-0.17471,-0.0280019,-0.0158097,-0.0158097,0.0277339,0.0175514,0.00213531,-0.0396582,-0.0263941,0.0162786,0.0442135,-0.067794,-0.0249203,-0.0412659,-0.0471611,0.0852115,0.0103835,0.108792,-0.0640426,-0.0322893,-0.0565397,-0.0138,-0.0263941,-0.0581475,-0.0310834,-0.0948581,-0.0602911,-0.0578795,-0.0836037,0.020499,-0.0664542,0.00726843,-0.06833,-0.0261262,-0.0383184,0.0592193,-0.0943221,-0.0296096,0.054664,0.0728853,-0.0175514,0.00643105,0.0317533,-0.0239825,0.114151,0.000330764,0.020231,0.08146,-0.0509125,0.00328252,-0.0667222,-0.0691338,0.0452853,0.020499,-0.0207669,-0.0106514,-0.00847425,0.0261262,0.0180873,0.12487,-0.0685979,-0.10772,-0.00669902,0.0297436,0.0412659,-0.0584154,-0.0308155,0.0514484,-0.00519174,-0.0401941,0.0460892,0.0235805,-0.0116563,-0.0482329,0.0485009,0.020365,-0.0573436,-0.0878911,0.0439455,0.0418019,0.101825,-0.000845751,-0.0793163,-0.0685979,-0.101289,-0.0153407,0.127013,0.10772,-0.0755649,-0.0294757,0.0217048,-0.0345669,-0.0645785,0.020499,-0.0624348,-0.0391222,-0.0333611,0.0209009,-0.0345669,0.00108859,-0.00296431,0.00142354,0.0186233,-0.0493048,-0.0707416,0.0334951,-0.0755649,0.0787804,-0.0862833,0.0932503,0.00626358,-0.0629708,0.0932503,0.0627028,-0.067794,0.147914,0.0101155,-0.0321553,-0.0728853,0.0672581,0.0132641,0.0412659,-0.0162116,0.0174174,-0.000127177,0.0444815
accordion	0.0125903,-0.00369201,-0.0142917,0.0571666,-0.0251805,0.0242278,0.0914666,-0.0258611,0.0125222,-0.0585278,-0.0295361,-0.0735,0.0598889,0.0247722,-0.0245,-0.0317139,0.0525389,0.0653333,0.0402889,-0.049,0.0492722,0.0617944,-0.049,0.0925555,-0.00314757,-0.0378389,-0.00932361,-0.0675111,-0.0067375,0.0617944,-0.0438278,0.0533555,0.0276305,0.0898333,0.100722,-0.127944,0.0672389,0.0658778,-0.0533555,-0.0132708,-0.00297743,0.04165,0.0479111,-0.0427389,0.0506333,-0.0283111,0.0230028,0.00925555,0.0696889,0.00106762,-0.0351167,-0.0202805,-0.0176944,-0.0421944,0.0264055,0.0234111,-0.0419222,0.0405611,-0.0311694,-0.0166055,-0.0149042,-0.05635,-0.0914666,0.0383833,0.0303528,-0.0620666,-0.0370222,-0.030625,-0.0124542,0.0909222,0.150267,0.00158229,-0.0321222,-0.00959583,-0.0882,0.0242278,-0.0470944,-0.104533,-0.0547166,-0.0647889,0.0473666,-0.04655,0.0291278,0.0204167,-0.0484555,0.0337555,-0.0871111,0.101811,-0.0287194,-0.0344361,-0.100178,-0.0136111,-0.0251805,0.0473666,-0.0552611,0.0308972,0.0833,-0.0351167,-0.0729555,-0.196,-0.0215055,-0.0108208,-0.0843889,0.0375667,-0.0158569,0.0289917,0.0843889,-0.0249083,-0.0882,-0.0476389,0.0457333,-0.0658778,0.0100042,-0.0849333,-0.0914666,0.0843889,0.0441,0.0432833,0.0590722,-0.0017099,0.0617944,-0.119233,-0.0351167,-0.0166055,0.018375,-0.0495444,-0.0224583,0.0104125,-0.0329389,0.0353889,-0.0319861,0.0351167,-0.0315778,0.0242278,0.104533,0.103444,-0.0549889,-0.023275,0.0298083,0.124678,0.0718666,-0.0272222,-0.0669666,-0.0186472,0.125767,0.0931,-0.00517222,0.0664222,-0.0601611,0.0204167,0.0588,-0.0303528,0.0794889,0.0552611,0.0577111,0.0470944,0.00192257,0.000718836,-0.0175583,-0.0672389,0.0892889,0.0462778,-0.0151083,-0.0091875,0.0691444,0.0383833,0.0590722,-0.0389278,-0.0707777,-0.0756777,-0.0833,0.0213694,-0.00745208,0.0593444,-0.049,0.0119778,-0.0596166,-0.0268139,0.05145,0.00445764,0.00568264,-0.0132708,-0.0560778,0.0115014,0.144822,0.0289917,0.04655,-0.0549889,0.0314417,0.0789444,0.0503611,-0.0128625,-0.00945972,-0.0454611,0.00925555,-0.00323264,-0.020825,0.0381111,-0.0724111,0.0985444,-0.0876555,0.00340278,-0.0617944,-0.105078,0.0718666,0.0209611,0.0609778,0.00245,-0.0322583,0.0370222,-0.0392,-0.0675111,0.0140194,0.0441,0.0408333,-0.0460055,0.00217778,0.0503611,-0.0827555,-0.0963666,-0.0189194,0.0784,0.0740444,-0.0756777,-0.00721389,-0.0141555,0.0724111,-0.0669666,0.0694166,-0.0702333,-0.0333472,-0.0315778,-0.0525389,0.0740444,-0.0487278,-0.0756777,0.00136111,-0.1225,0.0740444,0.0235472,-0.00253507,-0.0247722,0.0451889,0.0833,0.0718666,-0.0816666,0.0308972,-0.0196,0.0555333,-0.0677833,0.0492722,-0.00365798,-0.00435555,0.0457333,0.0142917,-0.106711,0.0990888,-0.0639722,0.0123181,-0.0958222,0.0294,0.0860222,-0.00758819,-0.0341639,-0.0528111,0.0549889,-0.0392,-0.0348444,-0.144822,-0.0509055,0.0276305,-0.0740444,-0.0666944,0.0549889,0.115967,-6.08778e-05,0.0166736,0.0137472,-0.0296722,-0.0677833,-0.0585278,0.0262694,-0.0522666,0.0264055,-0.00939166,0.00040408,0.00382812,0.0224583,0.0481833,0.135567,0.0314417,0.106711,-0.0729555,-0.108344,0.0528111,0.102356,0.00687361,0.00629514,0.00166736,0.0541722
typewriter	0.0920095,-0.0447546,-0.0770079,-0.0622564,-0.0395041,0.077508,-0.0312532,-0.0317533,0.0785081,0.0655067,0.0700072,0.039004,0.019252,-0.0497551,0.0470048,-0.0515053,0.0755078,0.0700072,-0.0407542,-0.0221273,0.007282,-0.0375039,-0.0200021,0.0415043,-0.0552557,0.000535211,-0.0915094,0.0217522,0.00881341,-0.0188769,-0.0815084,-0.0705072,-0.0475049,0.0332534,0.0237524,-0.00367225,0.0038754,0.0500051,-0.0145015,-0.0500051,-0.0143765,0.0435045,0.00156266,0.0235024,0.0542556,0.0405042,-0.122013,-0.0247525,-0.0567558,0.0400041,-0.182019,0.00881341,0.0256276,-0.0332534,-0.0272528,0.09751,0.0860088,0.00298468,-0.0660068,-0.0297531,0.10001,-0.00612563,-0.0457547,0.0640066,0.00289092,-0.0830085,-0.0920095,0.0770079,-0.0205021,0.0355036,-0.00590686,-0.00778205,-0.0755078,-0.156016,-0.058506,-0.0130013,-0.0372538,-0.108511,-0.0205021,-0.107511,-0.0360037,-0.0422543,0.0630065,-0.000174823,-0.0870089,0.0785081,-0.0310032,0.0432544,0.0980101,0.0322533,-0.0567558,0.0233774,-0.0420043,0.0342535,-0.0318783,0.0395041,0.0325033,0.048255,-0.0950098,-0.0860088,-0.0226273,-0.038504,0.00743826,0.0407542,-0.0241275,-0.00163298,0.00194551,0.0565058,-0.0415043,-0.0248776,-0.0395041,0.0345035,-0.0537555,-0.0995102,0.0800082,0.0243775,0.00456297,0.00862589,0.0535055,-0.107011,0.0840086,-0.0255026,-0.0176268,-0.10051,-0.00376601,-0.0610063,-0.0552557,-0.0108136,-0.0347536,-0.00518803,0.0477549,-0.131013,-0.0105636,-0.0317533,-0.0185019,0.00235962,-0.140014,-0.00443796,-0.0750077,0.0655067,0.161017,-0.00987601,0.015064,-0.039254,0.0380039,-0.0283779,-0.0615063,0.0322533,0.0340035,0.00490675,0.0355036,-0.0143765,0.0865089,0.133014,-0.0755078,-0.068507,-0.0660068,0.0202521,-0.0278779,-0.0860088,-0.00568808,0.014814,-0.128013,-0.014439,0.00392228,-0.058256,0.0318783,0.00099229,-0.0437545,0.0101885,0.0440045,-0.0141265,0.0675069,-0.019627,-0.00481299,0.0595061,0.00843837,-0.0177518,0.0565058,-0.0375039,-0.0203771,-0.0462548,-0.0377539,-0.0675069,0.001172,-0.0402541,0.123513,0.0182519,-0.00231274,0.110011,-0.0462548,0.0830085,-0.0537555,0.0407542,-0.0522554,-0.0452547,0.0945097,-0.0920095,-0.0432544,-0.0440045,-0.0655067,0.0350036,-0.0322533,0.0960099,0.0515053,0.0126888,0.014689,-0.0138764,-0.0382539,0.0246275,-0.0305031,0.0430044,-0.0173768,-0.00235962,0.00762578,-0.0367538,0.0162517,0.078008,-0.00618814,0.00350036,-0.0985101,0.0442545,-0.0790081,0.00453172,-0.048505,0.0115012,-0.0352536,-0.0267527,-0.121012,-0.0417543,-0.0022346,-0.00235962,-0.0960099,0.0256276,-0.0271278,-0.0637566,0.0228774,-0.0457547,0.0138764,0.0497551,-0.0103136,-0.111511,-0.0710073,-0.0675069,0.00706323,-0.058506,-0.0345035,-0.00453172,0.0502552,0.028753,-0.167017,0.0635065,-0.00806333,0.0850087,-0.0785081,-0.0168767,-0.0202521,-0.068507,-0.0308782,-0.0510052,-0.0335034,0.0625064,-0.0600062,-0.0617563,-0.0725075,0.129013,-0.0565058,-0.0457547,0.0572559,0.0617563,0.0427544,0.0158766,-0.00471924,-0.0460047,0.128013,0.0397541,-0.0735076,0.0105011,-0.0315032,-0.0640066,-0.0400041,-0.0765079,-0.000593811,-0.0168767,0.111511,-0.0870089,0.0325033,0.000703197,-0.0315032,0.0645066,0.0237524,-0.0597561,-0.0600062,0.00243775,0.122013,0.000416058,0.0267527,0.0800082,-0.0278779,0.0650067
worm	0.0136393,-0.0154783,0.0301903,-0.0174705,-0.030037,0.087659,-0.063752,0.0732535,0.0536375,-0.0127198,-0.0222213,0.00689625,0.101145,-0.063139,-0.0150185,-0.110953,-0.017164,0.0695755,-0.031876,-0.0622195,0.00662806,0.055783,0.0176238,0.0530245,-0.0438295,-0.076625,-0.0438295,0.0350943,0.131795,-0.00103923,-0.09195,-0.083981,0.10421,-0.098693,0.0314163,-0.000569899,-0.00436763,-0.053331,0.000493274,-0.0334085,0.106049,-0.00570856,-0.0101911,0.049653,-0.038006,-0.061913,0.064365,-0.078464,-0.0567025,0.069269,-0.111566,-0.032489,0.080916,-0.11034,0.00969307,0.072334,0.083368,-0.112179,-0.0131029,-0.0206888,0.0462815,0.0274318,-0.0769315,0.0462815,0.0401515,-0.0628325,0.0217615,0.00227959,-0.068043,0.110953,0.0384658,-0.041071,0.0140224,-0.0344813,-0.042297,-0.0271253,-0.0665105,-0.0146354,0.025133,-0.0389255,0.0536375,-0.09195,-0.00624494,-0.0775445,0.05517,-0.056396,-0.0732535,-0.0597675,0.0225278,-0.078464,-0.044749,-0.0262058,-0.0286578,0.00117332,0.017164,0.103597,0.061913,-0.00314163,0.0354008,-0.034328,0.0190796,-0.094402,-0.0280448,-0.034328,-0.07969,0.025133,-0.088885,0.0274318,-0.079077,-0.0616065,-0.088272,-0.0652845,0.080303,-0.00232749,-0.0334085,0.00969307,-0.081529,0.053944,0.0140224,0.0462815,0.0444425,-0.051492,-0.070495,-0.106662,-0.051492,0.0186199,0.0291175,0.00578519,-0.101145,-0.0481205,-0.0376995,-0.059461,-0.0689625,0.0438295,0.0277383,-0.0262058,0.0597675,-0.0191563,-0.0044251,0.115244,0.0701885,0.0438295,-0.0335618,-0.038619,0.077851,0.0139458,0.0104976,0.048427,-0.079077,0.010421,0.066817,-0.040458,-0.00168575,0.057622,-0.0603805,-0.0138691,-0.0352475,-0.074173,-0.0744795,-0.0683495,0.0732535,0.0102678,-0.031263,-0.0524115,-0.0289643,-0.0689625,-0.022068,-0.0219148,-0.0186965,0.066204,-0.0278915,0.082755,0.044749,0.0334085,-0.019616,-0.000368758,0.0156315,0.0206888,0.0323358,0.052105,0.0511855,-0.0665105,0.009195,-0.09195,-0.0217615,-0.026972,0.0222213,0.0243668,-0.0228343,0.046588,-0.106049,0.00586181,-0.0113405,0.040458,-0.0683495,-0.00563194,0.0487335,-0.089498,0.0187731,-0.113405,0.0272785,-0.087659,0.046588,0.080916,0.106049,0.082755,0.0217615,0.0317228,-0.185126,0.0665105,-0.050266,0.053331,-0.0108808,0.015938,-0.0103444,0.0167043,0.0179303,-0.0381593,-0.0182368,-0.00942488,-0.0217615,0.0468945,-0.0444425,0.07969,-0.00758588,-0.0375463,-0.0597675,0.046588,0.0376995,0.0407645,0.0640585,-0.072947,0.0493465,-0.100532,0.00427185,-0.0280448,0.045362,0.00258609,0.0231408,0.0689625,0.0511855,0.00930994,-0.0350943,-0.0628325,0.057009,-0.0278915,-0.076625,0.0364735,-0.0236005,-0.0127964,-0.187578,0.051492,0.00262441,0.072334,0.0326423,-0.0123366,-0.099919,-0.00666638,0.023907,-0.0274318,-0.0254395,0.044136,-0.0462815,-0.028811,0.00739432,0.0211485,-0.170414,0.17777,0.0308033,0.07969,-0.0268188,-0.0173939,-0.0613,-0.0481205,0.110953,0.0542505,-0.0744795,-0.00609169,0.0481205,0.0311098,0.047814,-0.00169533,0.0665105,0.0237538,0.0401515,-0.0444425,0.0640585,0.0137159,-0.0720275,0.100532,0.07356,0.0108041,0.00651313,-0.0438295,-0.075399,-0.043523,-0.049653,-0.072334,0.00613,0.057009
rattlesnake	-0.0731029,-0.0721967,-0.0211455,0.136539,0.0267339,-0.0628323,0.0300568,0.0758216,-0.0345879,0.0456138,0.0779362,-0.0215986,0.0407805,-0.0607177,0.0283953,-0.131102,-0.0434992,0.0567907,-0.0376087,-0.0294526,-0.0755195,-0.0237131,0.00458781,0.0646447,-0.00641916,-0.00724987,-0.0791445,0.0857902,0.0365515,0.0359473,0.0217496,-0.00196351,0.0664572,0.0111769,-0.00475773,0.000202959,0.126269,-0.0160101,-0.00562621,-0.0583011,0.00186911,-0.0186533,0.0516554,-0.00473885,-0.157081,-0.0616239,-0.00362494,-0.00479549,0.0528637,-0.0225048,-0.0755195,-0.0410826,0.0380618,-0.0815611,0.0450096,0.108748,0.0978733,-0.0277912,0.0335307,0.038515,0.00766523,0.0285464,0.0065702,-0.0149529,-0.0096665,-0.138352,-0.0335307,-0.0365515,-0.13231,0.00626812,0.0264318,-0.132914,0.0507491,-0.0274891,0.0543741,-0.0302078,-0.00234111,-0.0398743,0.0785403,-0.111769,0.0180492,-0.122644,-0.0537699,-0.0906234,0.0495408,0.0106483,-0.0377598,-0.0188044,0.00405918,-0.0377598,-0.0740091,-0.0139711,0.065853,0.000651356,-0.0293016,-0.0249214,0.0495408,-0.0208434,-0.0531658,-0.00585276,0.0634364,-0.0764258,-0.0561865,-0.0797486,0.0691759,-0.0101196,-0.027036,0.030963,-0.0525616,0.019484,0.0173695,-0.0924359,0.161914,-0.0486346,-0.00974202,-0.0972692,0.00447453,-0.0208434,-0.128081,0.0673634,0.0238642,0.0486346,0.0321713,-0.0948525,0.0936442,0.00543741,-0.0863943,-0.0489367,-0.0728008,-0.0104972,-0.126269,-0.0589052,-0.0906234,0.0486346,-0.0631343,-0.0279422,-0.0267339,-0.105123,0.0510512,0.131102,-0.0779362,-0.0395722,-0.0592073,-0.0706863,0.143789,-0.00724987,-0.0111769,0.0253746,-0.0389681,0.000318598,0.0863943,0.0456138,-0.0737071,0.0389681,-0.126269,-0.0422909,0.0211455,0.0115545,-0.0746133,0.000438957,0.0368535,0.0282443,-0.0667593,-0.0365515,-0.00887354,-0.00210511,-0.0416868,0.0320203,0.0791445,0.0419889,0.0199372,-0.0184268,0.0392702,0.0264318,-0.0303589,0.0185778,-0.0205413,-0.0345879,-0.0330776,0.0157836,-0.0685717,-0.0761237,0.00279422,-0.0380618,-0.127477,-0.0141977,0.0592073,0.00150095,0.167955,0.0141222,-0.102707,0.0373066,0.0924359,-0.0294526,-0.0770299,-0.0367025,-0.0392702,-0.0139711,0.0191064,-0.0162367,0.0752175,-0.0640406,0.11781,0.023109,-0.00758971,-0.011781,0.0238642,0.0332286,0.00203903,0.0498429,-0.0685717,0.000943994,-0.0416868,-0.11781,-0.0422909,0.0522595,-0.0537699,0.0264318,0.0428951,-0.050145,-0.00808059,0.050447,0.019333,0.038666,0.0613219,0.0507491,0.0407805,0.0740091,0.054072,0.106936,-0.0592073,-0.0936442,0.0140466,0.0906234,0.0779362,0.0622281,0.0724988,-0.0326244,0.119019,-0.0468221,0.00774075,-0.0135935,0.0413847,-0.0610198,0.0129138,-0.0092889,-0.00555069,0.0634364,0.0132159,0.0407805,-0.0474263,0.0377598,0.00379486,0.0150284,0.0354942,-0.00524861,-0.00217119,0.0112524,-0.0809569,-0.027187,0.0312651,-0.01163,0.0148773,-0.0025299,0.0438013,0.0258277,-0.13956,-0.0376087,0.0166143,-0.0320203,-0.0954567,-0.0141977,-0.0279422,0.0134425,0.0634364,0.0180492,0.0549782,-0.0153305,-0.013518,-0.0516554,0.106936,0.0148773,0.000670236,0.0197861,0.000519197,-0.0522595,-0.0200882,1.88061e-05,0.015406,0.0327755,0.0368535,-0.030963,-0.0410826,0.0486346,0.0685717,-0.0827694,-0.0507491,-0.0151794,0.0180492,-0.0250725
grasshopper	0.0366439,-0.0804856,-0.0214301,-0.00981532,0.0142322,-0.0454776,-0.0354987,0.0299367,-0.0588919,0.0418787,0.0260106,0.0161135,0.0484222,-0.0667442,-0.0732877,-0.0418787,0.0539843,0.118438,-0.0190581,0.0261742,-0.0494038,0.13676,0.042533,-0.00711611,-0.0444961,0.00230047,0.0585647,0.019467,0.0392613,0.020285,-0.00351716,-0.035008,0.0523484,0.00133938,-0.0844117,-0.0422059,0.0543114,-0.0381162,0.0192217,0.0087111,0.130871,-0.0139868,-0.00085884,0.0592191,-0.0238839,-0.0422059,0.0569289,-0.109277,0.0896466,-0.00985622,-0.0595463,-0.0323906,0.0255198,-0.0595463,0.0307547,0.0530027,0.0279737,-0.0087111,-0.0273193,-0.0110422,0.0317362,0.0167678,-0.00560291,-0.0857204,-0.0448233,-0.077541,0.139378,-0.0211029,-0.0271557,0.0428602,0.100771,0.00682983,0.00163589,-0.171441,-0.0248655,-0.0292824,-0.0458048,0.0131689,0.00411016,-0.119747,-0.0844117,-0.0621637,0.0102652,-0.0850661,0.0484222,0.0144776,-0.0716518,0.046132,0.0598734,-0.0438418,-0.0588919,0.062818,-0.11124,-0.0320634,-0.0441689,0.019876,0.00151319,-0.057256,-0.051694,-0.0474407,0.0250291,-0.10666,0.0309183,0.0546386,-0.0354987,0.0530027,0.0301003,0.0402428,-0.0595463,-0.117784,0.0611822,-0.0598734,0.000777046,-0.0935727,-0.00496901,-0.0955358,-0.00188127,-0.0582376,0.017913,0.0214301,0.0276465,0.0312454,-0.057256,-0.0863748,0.0386069,0.0358259,-0.0837574,0.0916096,0.0072797,0.0243747,-0.0368074,-0.0526755,-0.100116,-0.0333721,-0.13676,-0.0435146,-0.00883379,0.037789,-0.00144162,0.08114,-0.00625727,0.0497309,-0.0205304,-0.00674803,0.0651083,0.0269921,-0.028628,-0.071979,-0.04057,-0.0214301,0.0566017,-0.0323906,0.0480951,0.0335357,-0.0497309,-0.0301003,-0.0739421,0.0526755,-0.0336993,-0.0255198,0.0736149,-0.0850661,0.00932455,-0.0206122,0.0484222,0.0431874,-0.0844117,0.0961901,-0.0263378,0.0602006,-0.00674803,-0.0305911,0.00531663,0.0556201,0.0386069,0.071979,-0.0579104,-0.0323906,-0.00952904,0.0134143,-0.0134143,-0.153119,0.0467864,-0.0827759,-0.0647811,0.0615093,-0.0732877,-0.0592191,-0.0706703,-0.0602006,-0.0464592,0.0611822,0.0141504,-0.0212665,-0.0323906,-0.00854751,0.0579104,0.0161953,-0.0458048,-0.102734,0.0448233,-0.04057,-0.062818,0.0644539,-0.0410607,-0.0781954,-0.0204486,0.0193035,-0.124327,0.0837574,-0.0634724,-0.0857204,0.110586,0.0559473,-0.0566017,0.00427375,0.0107969,-0.109277,-0.0317362,-0.0464592,-0.0212665,0.060855,0.0279737,-0.0193035,0.0981532,0.105351,-0.0618365,-0.00539843,0.118438,-0.00703431,0.0330449,-0.0562745,-0.019467,-0.0359895,0.0102652,0.0100198,0.0255198,-0.0582376,0.0876835,-0.0130053,-0.00154387,-0.0759051,0.00560291,-0.0237204,0.0175858,-0.0435146,-0.0585647,0.00390568,0.0237204,-0.102079,-0.184528,0.116475,0.00343536,-0.00417151,0.00456003,-0.0220845,-0.102734,-0.0471135,-0.017095,0.0428602,-0.0651083,-0.0086702,0.0533299,0.0161135,-0.0410607,0.0471135,-0.138069,-0.0575832,-0.0729605,0.0713247,-0.0139868,-0.0120238,-0.0229024,-0.0129235,0.0624909,0.0148048,-0.0883379,-0.0217573,-0.0271557,0.0673985,0.0690344,0.0546386,0.0291188,0.0680529,-0.00226979,0.0363167,0.0477679,0.117129,-0.0582376,0.0559473,0.0108786,-0.0085884,0.0153773,-0.051694,0.10666,-0.0575832,-0.0503853,0.0211029,-0.0526755,-0.0332085
medal	-0.0906372,-0.0241026,0.0750499,0.0609059,0.0692769,-0.04503,-0.029154,-0.00294066,-0.0981422,0.0721634,0.0184738,-0.0652357,0.0106802,0.0710088,0.00360817,0.1501,-0.00743283,0.0372363,-0.107956,-0.0157316,-0.051669,0.0686995,0.00200253,-0.0137832,-0.0461846,-0.129894,-0.0606172,0.101029,0.00912867,0.0139275,0.0112575,0.0121956,0.0142162,-0.00184017,0.0632151,-0.0238139,-0.0557101,0.0536896,-0.0173914,-0.0689882,-0.159337,0.0189068,-0.00559266,0.0969876,0.0372363,-0.0139997,-0.0473392,-0.00342776,-0.00476278,0.0398342,-0.160491,0.0135667,-0.0137832,-0.00257984,0.0635038,-0.0415661,-0.0614832,0.00212882,-0.0284324,0.0122678,-0.0756272,-0.0109688,0.0490711,0.0012809,-0.0372363,-0.122389,0.0842868,-0.0353601,0.0177522,-0.0369477,-0.0176079,-0.0646584,0.0284324,-0.064947,-0.109688,-0.022515,0.0736067,-0.0536896,0.0461846,0.0421434,-0.0421434,-0.0202057,-0.0213604,-0.0160203,0.00113657,-0.00959773,-0.0534009,-0.00451021,0.0502257,-0.0487824,-0.138554,-0.0191955,0.0585967,0.00696377,0.0548442,0.017247,0.028288,0.0142162,0.0721634,-0.0438753,0.0255458,0.144327,0.0430094,-0.00351797,-0.0531123,0.043298,-0.0562874,0.0490711,0.0482051,0.0536896,0.0701428,0.0476278,-0.0136389,0.021216,-0.011041,0.0194841,-0.10507,-0.0837095,0.0340611,-0.0213604,-0.0285767,0.0265561,0.0121234,0.00186723,0.00340972,0.0378136,-0.0352157,0.080823,0.0076854,0.00368033,-0.0121956,-0.0349271,-0.0871734,-0.121234,-0.058308,-0.0230923,-0.0249685,0.00333756,0.0548442,0.0842868,-0.0424321,0.0281437,0.0704315,0.00772148,-0.0831322,-0.0510917,-0.0854415,0.0329065,0.00761324,-0.122389,0.0194841,-0.0894826,-0.00930908,-0.0190511,0.0372363,-0.0594626,0.0842868,0.0230923,-0.00692769,-0.0430094,-0.0243912,0.110843,0.0750499,-0.080823,0.00750499,0.022515,0.103338,-0.0119791,-0.0574421,0.0614832,-0.00224609,0.0156595,-0.158182,-0.0557101,-0.0242469,-0.059174,0.000226638,0.0106802,0.0109688,-0.0889053,0.0219377,0.0476278,0.0912145,-0.00368033,-0.0331952,0.0236696,0.101029,-0.0368033,-0.0160924,0.065813,-0.00223706,0.0134224,-0.028721,-0.137399,0.0424321,-0.011041,0.1501,0.00206568,0.0321849,-0.04503,-0.0461846,-0.0107523,-0.0675449,-0.0372363,-0.135667,0.0152265,-0.0136389,-0.00440197,-0.0407002,-0.0352157,0.0248242,-0.00876785,0.000870471,0.0637924,0.0126286,-0.0336281,0.0525349,-0.04503,0.0675449,-0.036659,-0.0378136,-0.0430094,-0.0125564,-0.000235659,-0.0487824,0.0710088,0.0114018,-0.115461,0.0084792,-0.0987195,0.011041,0.0409888,0.0259788,-0.0837095,0.0209274,-0.0848641,-0.00436589,0.0401228,0.0467619,-0.0204944,-0.0675449,-0.11142,0.00308498,0.0814003,-0.0290097,-0.00736067,0.0536896,0.051669,-0.12008,0.0173192,-0.0476278,-0.072452,0.0090565,-0.00829879,0.04503,0.118348,0.0278551,-0.0228036,-0.130471,-0.0580194,0.0730293,0.0340611,0.00844312,-0.105647,0.00330147,0.0241026,-0.0565761,0.0912145,-0.0383909,-0.0623492,-0.0837095,0.064947,-0.0184738,3.86187e-05,0.0773592,-0.00995855,-0.0251129,0.0020296,-0.0522463,0.0285767,0.00362621,0.0773592,-0.0620605,-0.00710809,-0.0473392,0.00681944,0.037525,-0.00667511,0.133358,-0.0756272,0.0831322,-0.0159481,0.0105359,0.0265561,-0.0258345,-0.0894826,-0.0819776,0.065813,0.0935237,-0.0453186
blouse	-0.00371704,0.0170569,-0.132228,0.000867938,0.0384912,-0.0294344,-0.0531329,-0.01517,-0.0226419,-0.0381893,-0.0658124,0.0498121,0.0772842,-0.0023774,0.000726426,-0.00867938,-0.0202267,0.00230192,-0.0120757,-0.0247551,-0.0366798,-0.0646048,0.0344156,-0.0534348,0.0377364,0.143097,-0.0313967,0.0546424,0.0796994,-0.0244532,0.0419629,0.0143398,0.0694351,-0.0116983,0.0537367,-0.072454,0.138266,0.0911712,-0.127398,-0.00584915,-0.0881523,-0.0197739,-0.0790956,-0.0564537,-0.115323,-0.0428686,0.0401516,-0.0567556,-0.0243023,0.0960015,0.00301892,0.112907,0.0154719,0.0588688,0.0809069,-0.0691332,0.0166795,0.0244532,-0.00532084,0.0428686,-0.0410572,-0.012453,-0.0630953,-0.0200758,0.0357741,0.0404535,-0.0652086,0.0636991,0.112304,0.118945,0.0366798,0.0658124,-0.00158493,-0.0144153,-0.0338119,0.0113964,-0.0192456,-0.0351704,0.0282269,0.00225475,-0.00822654,-0.012453,-0.0188682,-0.0313967,-0.0784918,-0.0125285,0.0404535,0.050114,0.061284,-0.0784918,-0.066718,-0.0772842,0.00416988,0.00281136,-0.0504159,-0.00532084,0.0941902,0.0796994,0.0887561,0.0197739,-0.0682275,-0.150342,0.0137361,-0.0276231,-0.0911712,0.0353213,-0.000179248,-0.00656614,-0.0905675,0.00113681,0.0748691,-0.0658124,0.0827183,0.00898127,0.107473,0.0226419,-0.0015755,-0.00815107,0.00777371,0.0609821,0.0827183,0.0125285,0.0567556,-0.0289816,0.0803031,-0.00694351,-0.128606,0.0709445,-0.0133587,0.0240004,-0.0869448,-0.0113209,-0.0182644,0.0449818,-0.0265665,0.0549443,-0.0236985,-0.052831,0.0803031,0.000801899,0.0748691,0.0100379,-0.128002,0.0307929,-0.0206796,-0.0310948,-0.0833221,0.025057,0.041661,-0.00443403,0.0261136,0.0748691,0.0440762,0.0712464,0.00532084,0.000431611,0.0727559,0.126794,0.00424535,-0.0929826,0.0288306,-0.102643,-0.00520763,-0.0341137,-0.00716992,-0.0815107,0.0158493,-0.055548,0.0313967,0.147927,-0.00996242,-0.0338119,-0.0935864,-0.0881523,-0.0564537,0.0576613,0.0796994,-0.113511,0.00315099,-0.0209815,-0.0274721,-0.0336609,-0.00430195,-0.0274721,0.015321,-0.00146229,0.052831,0.0321514,-0.0446799,0.0224909,-0.015321,0.0380383,0.0339628,0.00773597,-0.0905675,0.0184154,0.00202833,-0.00607557,-0.0120757,0.0380383,-0.0984166,-0.0597745,0.0270193,0.108681,-0.00950958,-0.0531329,0.00735861,0.00422648,-0.0312458,-0.0196229,-0.0772842,0.0440762,0.0561518,0.0264155,0.0495102,-0.0292835,0.0519253,-0.0422648,0.0827183,0.0697369,-0.0655105,-0.0128304,-0.0929826,0.0540386,-0.02234,0.00630199,-0.0357741,-0.0893599,-0.0407554,0.0857372,0.0461894,0.0120757,-0.0292835,0.0132832,-0.0270193,0.0163021,-0.0498121,-0.0480008,0.0205286,-0.0236985,0.0428686,0.00258495,-0.0166795,-0.0138115,0.0458875,-0.000990582,-0.00398119,0.0431705,-0.0236985,0.0164531,0.00781144,0.106266,0.0380383,0.0899637,0.0522272,0.0107171,-0.0144908,0.0537367,0.0116983,-0.112907,0.154568,0.13887,-0.00137738,-0.00179248,-0.0043963,0.061284,-0.0821145,0.0984166,0.0467932,-0.00452837,-0.0498121,0.0537367,-0.0947939,0.114115,0.0537367,-0.058567,0.117738,-0.0845296,-0.0537367,0.0214343,0.0579632,0.0329062,0.0174342,-0.110492,0.0803031,0.0200758,-0.0285287,0.00550952,0.0658124,-0.0163776,-0.0790956,0.0166795,0.000957562,-0.00603783,0.0353213,-0.0256608,0.0315477,-0.00762276,0.150946,-0.00535857
mittens	-0.0251013,-0.0763952,-0.133692,0.0654816,-0.0384704,0.0133009,0.0436544,0.0823976,0.00948119,-0.0349235,0.0208723,0.0608433,0.035742,0.0529309,-0.0174618,-0.125506,-0.0279661,0.105316,-0.0829433,-0.00164557,0.0428359,-0.0216908,0.085126,-0.0296031,-0.0657544,0.0296031,-0.000400734,0.128235,0.0905828,-0.085126,-0.0122778,-0.0458371,-0.0222364,0.0081852,0.0439272,-0.0436544,0.0177346,0.0553865,-0.0548408,-0.0231914,0.0758495,0.00879909,0.0433815,-0.0193716,-0.0181439,-0.10859,0.0226457,-0.00206335,0.0938569,0.109682,-0.0684828,0.0597519,0.0373791,0.0518396,0.0174618,-0.00593427,0.0347871,-0.0268747,-0.0321951,0.00757131,0.00572964,0.0526581,0.00651405,0.00293303,-0.0785779,-0.0856717,0.0379247,0.00288187,-0.0570235,-0.00538859,0.197536,-0.00157736,-0.069847,0.00431428,0.0126188,-0.000861151,0.0534766,-0.0016882,0.042563,-0.0174618,0.0392889,-0.0226457,-0.0526581,-0.0127553,-0.109136,-0.00927655,0.0572964,-0.0684828,0.085126,0.0635717,-0.054568,-0.0813063,-0.0285118,0.0251013,-0.0668458,-0.0330136,-0.0122096,-0.00586606,0.0100951,-0.00815109,-0.0264655,-0.107499,-0.0169161,-0.0526581,0.0211451,-0.0442001,0.110227,-0.0164386,-0.0203266,-0.000895256,0.0236006,0.00661637,0.121141,0.0611161,0.00961761,0.0597519,0.0654816,-0.0512939,-0.0553865,-0.0144605,0.0395618,-0.035742,0.0279661,-0.0709384,-0.0684828,0.0518396,-0.0275568,0.11241,-0.0150744,-0.0236006,-0.0518396,0.0422902,0.0474741,0.0195081,-0.0371062,-0.0309673,0.0324679,-0.0720297,0.0088673,-0.00982224,0.107499,0.071484,0.0392889,0.0229185,0.0444729,0.00579785,-0.0635717,-0.0395618,-0.0240099,-0.0720297,0.0548408,-0.0780322,-0.0690285,-0.0195081,-0.0167114,-0.0731211,0.0180074,0.0330136,-0.00590016,0.0444729,0.0526581,-0.12005,0.0720297,0.0395618,-0.0586606,-0.0496569,-0.0368334,0.0944026,0.00380271,0.0736668,0.0252377,0.0278297,0.0153472,-0.0335593,-0.0747581,0.134783,0.00279661,-0.0638445,-0.0221,-0.0635717,-0.023055,-0.0283753,0.0304216,0.0255105,-0.100951,-0.0201901,-0.01105,-0.0488383,0.122232,0.0862174,-0.0395618,-0.00948119,0.0608433,0.0450186,0.0225093,0.0257834,-0.0291939,-0.132054,-0.0673914,0.0321951,-0.0867631,0.0227821,0.0556593,0.0862174,-0.0212815,-0.0665729,-0.0133009,-0.0294667,-0.0339686,0.064663,-0.104771,0.0196445,-0.0271476,0.0401075,0.035742,-0.0332865,0.056205,0.00798057,-0.0982224,-0.0976767,0.00143241,0.0753038,0.017871,-0.0111864,-0.0241463,0.06821,-0.0286482,-0.0725754,0.0328772,-0.0742124,-0.0403803,0.057842,-0.031513,-0.0253741,-0.0763952,-0.0201901,0.0167114,-0.0641174,0.178983,-0.0635717,0.0100269,0.0351963,0.0439272,0.0132327,0.0499297,0.097131,0.0417445,0.106408,0.03315,-0.106953,-0.0954939,0.0215543,0.0398346,0.142968,0.0365605,0.0742124,-0.023055,0.0327408,-0.0720297,0.00873088,-0.0113229,-0.0200537,-0.0657544,-0.0271476,-0.00381976,0.0567507,-0.105862,-0.0673914,0.0884001,0.0381976,-0.0169843,0.064663,0.03315,0.0334229,-0.0323315,-0.133692,-0.00075031,-0.0238735,0.139694,0.0420173,0.0785779,-0.0245556,0.0414717,-0.0343778,-0.0709384,-0.000579785,0.000622416,0.0627532,0.0725754,0.0105043,0.00436544,-0.0663001,-0.0998594,-0.0336957,0.0336957,-0.0362877,0.00740078,0.0395618,-0.0398346,-0.0048088
armour	0.00913358,-0.0342892,-0.0346974,-0.0131646,0.0742933,-0.0169405,-0.0555159,0.0140831,0.06368,-0.0449025,-0.0201041,0.0563323,-0.0408205,-0.0559241,-0.00918461,-0.0893969,0.0755179,0.000526202,-0.00479641,-0.0902133,-0.0221451,-0.0779671,0.0495969,-0.0304113,0.0228595,0.0475559,-0.0930707,0.06368,0.0123992,0.0129605,0.0263292,-0.0885805,-0.016022,-0.0199,0.000558093,0.0127054,0.0428615,0.0252067,0.0224513,-0.165731,0.0190836,0.0233697,-0.00256404,0.0555159,-0.0310236,-0.0265333,0.0265333,0.0231656,0.0583733,0.0369425,-0.0665374,-0.0861312,-0.00882743,0.00581692,0.0710277,0.00183692,0.0250025,-0.0165323,-0.065721,0.0336769,-0.00382692,0.0922543,-0.0495969,0.00196449,-0.0185733,-0.0271456,-0.0210226,-0.0889887,-0.0910297,0.134708,0.0918461,-0.120829,0.0865394,0.0202061,-0.0277579,0.0393918,0.00326564,-0.0853148,0.0583733,-0.0467395,-0.0930707,-0.0820492,-0.00505154,0.0400041,-0.049801,0.00852128,-0.0910297,0.102051,-0.0595979,-0.0146954,-0.0579651,0.00479641,0.00693948,-0.0316359,-0.108582,0.0189815,0.0730687,-0.00441372,0.0246964,-0.0461272,0.00780692,-0.0483723,-0.0730687,0.0942953,0.00163282,-0.051842,0.041841,-0.0124502,-0.0832738,0.00223237,0.00540871,0.0363302,0.0893969,0.00609756,0.083682,-0.0442902,-0.0530666,0.000124375,0.053883,0.00405654,-0.00653128,0.0365343,-0.0861312,-0.0263292,-0.0595979,-0.169813,-0.137973,-0.0689866,0.118379,0.0938871,-0.043882,0.0983774,-0.191856,0.00170936,0.00668435,-0.0213287,0.00591897,-0.0628636,0.000170617,-0.00325288,0.0571487,-0.0223492,0.0755179,-0.0314318,0.00780692,-0.0043882,0.0706194,-0.0400041,-0.0393918,0.0473518,-0.0902133,-0.0526584,0.0873558,0.0404123,0.0689866,0.0665374,-0.0151036,-0.0600061,-0.0824574,0.000695224,-0.0234718,0.0796,0.109399,0.0174508,0.0387795,-0.00607205,-0.0579651,0.0336769,0.126544,0.0820492,0.0176549,-0.00688846,-0.0228595,0.0127564,0.0215328,-0.0041841,-0.0166343,-0.0502092,-0.0324523,0.0571487,0.0124502,0.0153077,0.0628636,0.113481,-0.132258,-0.173079,0.0930707,-0.0256149,-0.037759,0.0304113,-0.0400041,0.0530666,0.0375548,-0.0991938,0.00943974,0.00719461,-0.0101541,0.00964384,0.0787835,-0.0495969,0.0363302,-0.0820492,0.0640882,0.0428615,0.0169405,0.0361261,0.03184,-0.0436779,0.0673538,-0.0934789,0.0144913,-0.0152056,0.0653128,0.0330646,-0.0706194,0.00112894,-0.00210481,0.0171446,-0.0595979,-0.067762,-0.0649046,-0.0081641,0.0608225,-0.0142872,-0.0567405,0.0534748,-0.0840902,-0.0267374,-0.0320441,-0.0522502,-0.0763343,-0.0669456,-0.112665,0.027962,0.0236759,-0.0365343,0.0516379,0.0147974,0.000899326,0.0196959,0.00566384,-0.00770487,-0.0220431,-0.0926625,0.00372487,0.00443923,-0.0840902,-0.0353097,0.0193897,-0.0165323,0.0567405,0.00765384,-0.000436907,-0.0587815,0.0371466,-0.0101031,-0.0608225,-0.0567405,-0.0229615,-0.134708,0.0644964,0.0583733,-0.035922,-0.126544,0.0628636,-0.0434738,0.00847025,0.0148995,0.00790897,-0.0500051,-0.0108174,-0.0885805,0.0465354,-0.0112767,0.0710277,-0.0722523,0.0357179,-0.0571487,0.033881,0.065721,0.0132667,-0.0661292,0.0587815,0.0436779,-0.0726605,0.0269415,-0.101643,0.0210226,0.0206143,-0.0575569,-0.0158179,0.0775589,-0.02388,0.0779671,-0.00405654,-0.0914379,0.0442902,0.0105623,0.0400041,0.0465354
iguana	-0.0840131,-0.112205,-0.0290381,0.0119817,0.0857046,0.112205,-0.0400331,0.0575123,-0.0267827,0.0634327,0.0563846,-0.0499004,0.0145895,-0.0353814,-0.02932,-0.0349585,-0.0113474,0.0755554,0.0246683,0.029179,0.0577942,-0.0501823,-0.0142371,-0.0286152,-0.0266417,-0.0707627,0.0252321,0.124046,0.0597677,0.029461,-0.00143605,-0.0142371,0.0350994,-0.025655,-0.0363681,-0.0569485,0.0552569,0.0171268,-0.069635,-0.0834493,-0.0284742,0.0380596,0.0310115,0.032844,-0.0651243,-0.0885239,-0.143217,-0.114461,0.134759,-0.0338308,-0.0766831,0.0225539,0.114461,-0.00641375,0.0851408,0.122355,0.0981093,-0.00651947,0.00155939,0.00428171,0.0143076,0.04398,-0.0391873,-0.0369319,0.0473631,-0.0868323,-0.0274875,-0.0296019,-0.0343946,0.0321392,0.123482,0.00308353,-0.0345356,0.0215671,-0.0417246,-0.0133209,0.0544112,0.0386235,-0.04398,0.000612302,-0.0721723,-0.0817577,-0.0823216,-0.148855,-0.0749916,-0.00440505,-0.029179,0.0163515,-0.0484908,-0.025655,0.0129685,0.0051451,0.00285447,-0.0276285,-0.0360862,0.0133209,-0.00407027,-0.0580762,-0.0738639,-0.0448258,-0.0676616,-0.0459535,-0.0176202,-0.018184,0.0919069,-0.054975,-0.00190298,-0.136451,-0.0422885,0.0303067,-0.00888058,-0.0665339,0.0459535,0.0541292,-0.0459535,-0.00838721,0.0102197,-0.0998008,0.0248092,0.0138142,0.00803481,-0.0789385,0.0238225,-0.06597,-0.00570894,0.0198756,-0.0287562,-0.0212852,-0.0126865,-0.0318573,0.0308706,-0.00972635,-0.0704808,0.00472221,0.0314344,-0.0862685,0.0140962,-0.110514,0.0135323,0.018184,-0.0405969,0.0817577,-0.0521558,0.0868323,0.0998008,-0.0151534,-0.0389054,0.100928,-0.0317164,0.00415837,0.0391873,0.0172678,0.00405265,0.0507462,-0.0873962,-0.0253731,0.032985,-0.0188889,-0.0420065,-0.0673796,0.0783746,0.0425704,0.0738639,0.0744277,-0.0109245,0.00431695,-0.0281923,0.0102197,-0.0248092,-0.0594858,0.0380596,0.0341127,0.0645604,-0.0116998,-0.0372139,0.0319983,0.0107131,0.0369319,0.0270646,0.0107836,-0.0744277,-0.0851408,0.0276285,-0.110514,-0.0986731,-0.0034007,0.00835197,0.0288971,0.0350994,-0.0405969,-0.13927,-0.0656881,-0.0215671,0.0170564,0.0451077,0.0538473,-0.025514,-0.0761193,0.0246683,0.0356633,0.124046,0.011136,0.00708332,0.0679435,0.018325,-0.00592039,0.129121,0.0397512,-0.0986731,-0.0420065,-0.00197346,0.069635,0.147728,-0.0425704,-0.0501823,0.000233468,0.0130389,0.00979683,-0.0718904,0.0131799,-0.0034007,0.16126,-0.0530016,0.0795023,0.0236815,0.00405265,-0.0434162,0.172537,0.0448258,0.0222719,-0.00810529,-0.121791,-0.0442619,0.03665,0.0159287,-0.0253731,0.120099,0.0496185,0.0462354,0.0177612,-0.0210033,-0.0198756,-0.000947086,0.0259369,0.0143076,-0.0727362,0.105439,0.0473631,-0.010995,-0.00253731,-0.0662519,0.0277694,0.00521558,0.0496185,-0.00923298,-0.00343594,0.0521558,-0.0236815,0.00553274,-0.000270911,0.0162811,-0.032985,0.0467992,0.0778108,0.0248092,-0.104312,-0.121227,-0.0445439,-0.0100788,-0.0180431,-0.0467992,0.105439,-0.140398,0.0518739,0.0532835,0.0701989,-0.0535654,-0.0343946,-0.0187479,-0.0902154,0.099237,0.0163515,-0.0890877,0.0167744,-0.00428171,-0.0167039,0.0693531,0.0152239,-0.0380596,0.109386,-0.0428523,0.0451077,-0.0352404,-0.0088101,-0.00740048,-0.0100083,-0.0583581,-0.0383415,-0.0235406,0.0445439
jeans	-0.011703,-0.0419483,-0.056235,0.128885,-0.0137548,0.0196063,0.00163385,-0.089976,0.0665701,0.0157306,-0.0413403,-0.0431642,0.0329811,0.107606,-0.131924,0.0480277,-0.0149707,0.100919,-0.02295,0.033741,0.00347669,0.00353369,-0.056235,-0.00881522,-0.0401244,-0.0154266,-0.0465079,-0.00873922,0.0462039,-0.0626184,-0.011171,0.0802489,0.0389085,0.0357168,-0.0717376,-0.00429362,0.044684,0.0273576,-0.00150087,0.0325251,-0.155634,0.0349569,-0.0632264,-0.0547151,0.0265976,0.033741,-0.0705217,-0.00109715,-0.010791,0.0504595,0.0194543,-0.0802489,0.0383006,0.0345009,0.0693058,-0.00721936,-0.00797929,0.105175,-0.0431642,-0.0033817,0.0547151,-0.056539,-0.0857204,-0.022646,-0.00376167,0.0857204,-0.0465079,0.0720416,0.122805,0.0641383,0.0924078,0.0128429,-0.103959,0.0519794,-0.146515,0.0477238,0.0462039,0.0711297,-0.00809328,-0.0170985,-0.0131468,-0.0632264,-0.0471158,0.033741,-0.0802489,-0.0329811,0.102743,0.116726,0.0384526,-0.0516754,-0.172657,0.0574509,-0.0604906,-0.0917998,-0.0200622,-0.134964,0.0281175,0.0458999,0.0369327,-0.0838965,-0.0531953,-0.0802489,0.0410363,0.00923318,-0.0269016,0.0044646,0.194543,-0.02295,-0.067786,0.0431642,0.0410363,-0.0428602,0.00317272,0.00215631,0.0486357,-0.0519794,-0.0370847,-0.0610986,0.0278135,0.0659621,-0.02295,-0.033741,-0.0297893,-0.00127289,0.114294,0.0407324,-0.0428602,0.0141347,0.0307013,0.0395165,-0.0726495,-0.0826806,-0.0279655,0.0887601,-0.00497756,0.0693058,0.056539,0.067786,0.0244698,-0.0273576,-0.00554751,-0.0504595,0.0443801,0.000283787,-0.0407324,-0.011323,0.00512954,0.0208221,-0.022646,0.00949915,0.0291814,-0.0431642,0.00554751,-0.0180104,0.0155786,0.0370847,-0.134356,-0.00778931,-0.0832886,-0.0127669,0.0659621,-0.0176304,0.079033,0.0180104,-0.0267496,0.0167945,-0.00737134,-0.00108765,-0.0680899,0.0360208,0.00592747,0.0150467,-0.02219,-0.0142107,-0.0328291,0.0247738,0.138612,-0.0275096,-0.0863283,0.0267496,0.0102591,-0.0769052,-0.0568429,0.0881522,0.103351,-0.0699138,0.033285,0.0635303,0.0056615,0.0398205,-0.0103351,0.0428602,-0.0154266,0.0410363,-0.033285,0.0525873,-0.010943,0.0610986,-0.0553231,-0.0589708,-0.00461659,-0.0455959,0.0297893,-0.0468118,0.0179344,-0.0143627,-0.124629,0.00687739,-0.011095,0.0166425,-0.0495476,0.0231019,-0.0164905,0.0729535,-0.0142107,-0.0305493,-0.136788,0.0125389,-0.0905839,0.0215821,-0.0595787,0.0186943,0.0287254,0.0838965,0.0241659,-0.022038,0.00374267,-0.0522833,-0.0299413,-0.00183334,0.0284215,0.0282695,-0.0249258,-0.00813128,0.0650502,0.0434681,-0.00630744,0.0151986,0.0553231,-0.0155026,0.0759932,0.0553231,-0.0881522,-0.0577549,0.0148187,-0.055931,-0.0320691,-0.0234059,0.0127669,0.000162673,0.00146287,0.0501555,0.0717376,0.110646,0.0218861,-0.0078653,0.150163,0.0392125,0.0278135,-0.107606,0.105175,0.0246218,0.0276615,-0.0577549,0.0659621,0.0714336,-0.011095,0.00116365,0.0769052,-0.000693438,-0.110038,0.0568429,-0.0574509,0.0723456,0.0395165,-0.0486357,0.0513714,-0.0181624,0.0118549,0.0349569,-0.0291814,0.0241659,0.0808568,0.010715,0.0234059,-0.0267496,-0.0538032,0.122197,0.0386046,-0.0516754,-0.0434681,0.0247738,-0.00543352,0.045292,0.0917998,-0.0519794,0.131316,-0.00051058,0.0820727,0.128277
eel	-0.0722785,-0.0726227,-0.0426787,0.056446,-0.0591995,-0.0454322,-0.0153162,-0.0172952,-0.177599,-0.00481856,0.00182847,-0.0612646,0.00222644,0.00475403,-0.121841,0.0791621,0.00329125,-0.0330416,-0.0177254,0.0881109,-0.101878,-0.0330416,0.0407857,0.0392369,-0.0340741,-0.0719343,-0.0492182,0.136297,0.0908644,0.0242649,-0.0082604,0.0798505,0.0304602,-0.00894876,-0.0702134,-0.0313207,-0.124594,0.0217696,0.0633297,-0.05266,-0.0137673,0.0259858,0.00907783,0.0512833,-0.030116,-0.130101,-0.0344183,-0.101878,-0.0698692,-0.0963713,0.0591995,-0.032009,0.0101534,-0.0110999,0.00236626,-0.0340741,-0.0578228,0.00249533,0.0326974,-0.0561019,-0.030116,-0.123218,0.0684925,0.00292556,-0.0719343,-0.114269,0.00184998,-0.0574786,-0.045088,-0.0887993,-0.041302,0.0147138,0.0196184,0.00783017,-0.0270184,-0.0302881,0.0265021,0.0156603,-0.05266,0.065739,-0.00492612,-0.0033773,-0.0292556,-0.0157464,0.0588553,0.136297,-0.0270184,0.00653948,0.0640181,-0.0230603,-0.0881109,0.05266,-0.0178115,0.0846691,-0.0433671,-0.0217696,0.00744296,-0.0142836,0.0746878,-0.0643623,0.080883,-0.00731389,0.0230603,0.0232324,0.0270184,0.0633297,0.020651,0.0815714,-0.0121325,-0.0426787,-0.0311486,-0.0132511,0.0461206,0.0270184,-0.0438834,0.00188225,-0.0100674,-0.0265021,0.0588553,-0.126659,0.0653948,0.0963713,0.0399253,0.0447438,0.00808831,0.0258137,-0.178975,0.0163487,0.0271905,-0.0571344,0.02633,0.0595437,0.0268463,-0.00162411,-0.0345904,0.0174673,-0.0406136,-0.0266742,0.0970597,0.13492,0.016865,-0.132166,-0.0561019,0.0653948,-0.0240928,-0.00112935,0.0117022,0.0815714,0.0474973,-0.0984364,0.106008,-0.058167,-0.0598879,-0.00877667,0.0323532,0.00843249,0.183105,0.0418183,0.0199626,0.0252975,-0.0311486,0.082604,0.0209952,0.00367846,0.00692669,0.0118743,0.0176394,-0.032009,-0.0705576,0.00748598,0.0108418,0.00404415,-0.0212533,-0.0192743,-0.00378602,0.0650506,0.0230603,-0.0464647,0.032009,-0.056446,-0.119087,-0.0877667,0.0162627,0.0402694,0.00739994,-0.0184998,0.0388927,-0.0242649,0.0877667,-0.0387206,-0.132855,-0.0881109,-0.0674599,-0.0457764,0.011272,0.0421624,0.0311486,0.0622972,-0.0550693,-0.0385485,0.0061953,-0.0215975,0.032009,-0.043195,-0.0125627,-0.0368276,-0.00395811,-0.0104976,0.045088,0.033902,0.0753761,0.0438834,0.00649646,-0.0376881,-0.000551231,0.0574786,0.122529,-0.0591995,0.097748,-0.0199626,0.0671157,0.000946504,-0.0404415,0.0671157,-0.0266742,0.061953,0.0712459,-0.0132511,-0.0363113,-0.0256416,-0.0674599,0.0461206,-0.135608,-0.132166,-0.090176,0.0166068,0.0774412,-0.0313207,-0.0547251,-0.0387206,0.0214254,0.0202208,0.08639,-0.0154022,-0.0077011,-0.115646,0.117711,0.0499066,-0.00554995,0.0280509,-0.125283,0.0144557,0.0547251,0.0578228,0.0653948,0.0629855,0.0540368,0.0739994,0.0107557,0.080883,-0.0505949,-0.0067546,-0.00436682,-0.0330416,0.0688366,0.0454322,-0.125971,0.0332137,0.0530042,-0.0660832,-0.0474973,-0.0443996,-0.0664274,0.0709017,-0.0387206,-0.0141976,-0.035623,-0.00522728,0.0237486,0.0285672,-0.0154882,0.0554135,0.00869063,-0.00593716,0.0138534,-0.0242649,0.0554135,-0.0519717,0.0533484,-0.0256416,-0.0246091,0.0239207,-0.00428078,0.0164347,-0.0242649,-0.0419904,-0.0540368,-0.0633297,0.0426787,-0.0154022
jacket	0.0167125,0.00569573,-0.0125906,-0.0491631,-0.00948039,-0.0118411,-0.0434674,-0.0464652,0.0734449,-0.0362728,-0.0716463,-0.10672,0.0012272,-0.00888084,-0.094729,0.0208344,-0.0292281,-0.0191856,0.0382213,-0.0953285,0.0497627,0.014614,-0.104322,-0.0130402,-0.0355234,-0.089333,-0.0335748,0.0791407,0.0125906,-0.0028666,0.00415938,0.0731452,-0.00222021,0.082738,-0.00955533,0.0125906,0.105521,0.0425681,-0.0488634,0.0512616,-0.0563577,-0.0464652,-0.0449663,-0.0189608,0.0467649,-0.062653,-0.0527604,-0.0437672,0.0301274,0.0124407,-0.0407694,-0.0557582,0.10672,-0.094729,0.0217337,-0.0379216,-0.0107919,0.0208344,0.0380714,-0.0674494,-0.0233825,0.0125906,0.00895578,-0.0233825,0.0042718,0.138496,-0.100125,-0.0632526,0.0392706,0.0911317,0.0151386,0.0545591,-0.0174619,-0.0464652,-0.127704,-0.00741944,0.0758431,0.00974269,0.0289283,0.00820635,0.177467,-0.0374719,-0.0839371,-0.0464652,-0.105521,-0.0189608,0.00873095,0.0803398,-0.0554584,0.0172371,-0.077342,0.0109418,-0.00850612,-0.0761429,0.0103422,-0.0881339,0.041369,0.00831876,0.0263802,-0.11991,-0.103722,-0.0404697,0.00798151,-0.0149138,-0.094729,0.0176118,0.28059,-0.0299775,-0.0299775,-0.00966775,0.0401699,-0.0491631,0.0353735,-0.0482638,0.017312,0.0368723,-0.0209843,0.0143892,0.000978953,0.128903,-0.0104172,-0.0437672,-0.0344741,-0.0199351,0.0899326,-0.00771921,0.0167874,0.0419685,-0.0241319,0.0791407,-0.00891831,0.0188858,-0.0740445,0.0151386,-0.0428679,0.0965276,0.0203847,-0.0644517,-0.00520859,0.0701474,-0.059955,0.0290782,0.0139395,-0.0671496,0.0012272,-0.0379216,-0.0677492,-0.0668499,0.0803398,-0.0350737,-0.0088059,0.00116163,0.00981764,0.0725456,0.00180802,-0.0238321,-0.0821384,0.0476643,-0.0187359,0.0527604,0.0367225,0.00775668,0.171471,0.0299775,-0.00831876,0.0235324,-0.0491631,0.0431676,-0.00925556,0.0337247,0.0215838,-0.016038,-0.0764427,0.00106795,-0.0458656,0.0458656,0.077342,0.00177992,-0.0575568,-0.017387,-0.0105671,0.00502123,-0.0485636,0.0716463,-0.000386429,-0.0887335,0.0284786,0.0389708,-0.00539595,0.0383712,0.00891831,0.0716463,-0.0749438,0.104322,0.014614,-0.0362728,-0.0422683,0.00745691,-0.0347739,-0.056058,-0.0482638,-0.0260804,-0.101324,0.0292281,0.0779416,0.00940545,-0.0821384,-0.00524607,-0.0179865,0.0512616,-0.0488634,-0.00779416,-0.0542593,0.0117662,0.00711966,0.0193355,-0.0335748,-0.00502123,-0.0140145,-0.0677492,-0.0905321,-0.00459031,0.0614539,0.0803398,-0.0262303,-0.00177992,0.113915,0.0143892,-0.100724,-0.0617537,0.0491631,0.0767424,-0.0310267,-0.153485,0.0272795,0.015963,-0.0524607,0.0494629,0.0779416,-0.0863353,0.0295279,-0.0299775,0.0167125,-0.105521,0.0302773,-0.0329753,0.0265301,-0.0779416,0.0278791,-0.00455284,-0.00708219,0.0325256,0.00543343,0.0518611,-0.0181364,-0.0165626,0.0446665,0.0115413,-0.029378,-0.0557582,0.0316263,0.0314764,-0.0614539,-0.108519,0.00805646,0.0887335,-0.0290782,-0.0349238,-0.0202348,-0.0503622,-0.0869348,0.0869348,-0.0190357,0.0935299,0.0803398,-0.0295279,0.0244317,0.00494629,-0.00235136,0.0593555,-0.00226705,-0.0265301,0.145091,0.0353735,0.0377717,0.0193355,-0.0407694,0.0845366,-0.00175181,-0.116313,-0.0494629,-0.0178366,-0.0521609,0.0337247,0.0482638,-0.14629,0.077342,-0.0184362,0.00271671,0.0875344
housefly	0.0933048,0.126945,-0.0312603,-0.00120995,-0.0977479,0.00749771,-0.0399878,0.0444309,0.0337992,-0.00115044,0.0166616,-0.0856881,0.0701373,0.0183277,-0.0593469,-0.00702166,-0.11679,0.0733109,-0.0176137,-0.0233262,-0.0457003,-0.0285627,0.0282453,0.00074382,-0.049826,-0.0755325,-0.0831492,0.0609337,0.0514128,0.0199145,-0.133927,-0.121233,-0.0234849,0.0271346,-0.0695025,-0.0101556,-0.00184467,0.0983826,0.0634726,0.147891,0.0282453,0.0260238,0.0482392,0.0799755,-0.0161062,-0.109173,0.0612511,0.0431614,0.132023,-0.0596643,-0.135831,-0.0331645,0.0837839,-0.11679,0.0783887,0.0172963,0.0958437,-0.0641074,0.0628379,0.0720415,0.0482392,0.0688678,0.0412572,-0.0238022,-0.0631553,-0.0863228,-0.0150748,-0.0752151,-0.0453829,0.0523649,0.0200732,-0.0272932,-0.0504608,-0.0168996,-0.100287,-0.0341165,-0.0542691,-0.125676,-0.0510955,-0.0398291,-0.0342752,0.032371,0.0666463,-0.0971131,-0.0019736,0.0590296,-0.0333231,0.00505798,-0.0207873,-0.017693,0.00487946,-0.0231675,-0.12758,-0.0298321,0.00519682,-0.0330058,0.0450656,-0.0856881,0.0124565,0.027928,0.056808,-0.0971131,0.0418919,-0.0399878,0.0555386,0.0422093,0.0685505,0.0587122,-0.0128532,-0.053317,-0.0422093,-0.00470094,0.0539517,0.0536344,0.0345926,-0.00960024,-0.0391944,-0.0787061,-0.0372902,-0.0514128,-0.0523649,-0.0958437,-0.0818797,-0.0920353,-0.00105127,0.0507781,-0.0103143,0.0201526,-0.0149954,0.0875923,0.0444309,-0.0189625,-0.132658,0.0325297,0.0260238,0.0231675,-0.00141822,0.00856881,-0.000803326,0.0391944,0.128215,0.00436374,-0.0758498,0.0850533,0.0758498,-0.00825144,-0.0628379,-0.00450259,0.0195178,-0.0312603,0.0764845,-0.0542691,-0.172646,0.0163442,-0.0510955,-0.0647421,0.0303082,-0.0379249,0.0272932,-0.038401,0.00164632,0.0529997,-0.0298321,-0.046335,-0.0453829,-0.105365,0.0032133,0.0437961,-0.0225328,-0.00378852,0.046335,-0.0291974,-0.0403051,0.0549038,-0.0403051,0.00372902,-0.014202,-0.0609337,0.0555386,-0.0599817,-0.024437,-0.00892584,0.0647421,0.0536344,0.00967958,0.0517302,0.0907659,-0.122502,-0.0450656,0.0914006,-0.0422093,-0.0631553,-0.0396704,0.0825144,0.0122185,0.0409399,-0.0345926,-0.088227,-0.0167409,0.0295148,0.0526823,0.0147574,-0.0926701,0.0526823,-0.00483979,0.0376075,0.0983826,0.03491,-0.0180897,-0.0203112,-0.161855,-0.0212633,-0.0403051,0.0185657,-0.0422093,0.0255477,0.0252304,0.0856881,0.0168203,-0.0514128,0.0593469,-0.0191211,0.0218981,-0.038877,0.10346,-0.00259841,-0.017693,0.0593469,0.06379,-0.00852914,0.0558559,-0.0545865,0.0529997,0.0444309,-0.00430424,-0.0238022,0.0315776,0.032371,0.0236436,0.0228502,0.0164235,-0.0178517,-0.0325297,-0.0173756,0.0542691,0.046335,-0.017693,-0.0558559,-0.0382423,-0.0341165,-0.0520476,-0.0669636,0.0395117,0.0977479,0.0612511,-0.0663289,-0.0460177,-0.0520476,-0.0926701,-0.0164235,0.0285627,0.0266585,-0.0615685,-0.124406,0.0266585,0.013964,-0.0366555,-0.0529997,-0.0901312,0.0799755,-0.152969,0.0268172,0.00351083,-0.0622032,0.0401464,-0.000105994,-0.0188038,0.117424,-0.0134879,-1.51088e-05,0.00176533,-0.013964,0.0875923,0.00543485,-0.000384307,-0.00789441,-0.0157888,-0.0790234,0.0236436,-0.0228502,-0.0201526,0.0669636,-0.0056332,0.0117424,-0.00967958,-0.00852914,0.0295148,0.0184864,-0.0130119,-0.00309429
saddle	-0.0151672,0.0118924,-0.00131959,0.047225,0.0213719,-0.0799723,-0.150982,-0.0143916,-0.0692863,0.077904,0.00573077,0.00329627,-0.0882453,0.00995344,-0.0272319,0.00603239,0.033092,0.0236125,0.000393183,0.00930712,0.0197345,0.09445,0.0284384,-0.0120648,-0.150982,-0.0644604,0.00433039,0.113754,0.0834193,-0.0772146,-0.0230954,0.0239572,0.00441657,-0.0492932,-0.00295156,-0.0142192,0.0486038,0.0158566,-0.0144777,-0.0858323,-0.16477,-0.0879005,0.00667872,0.0854876,0.0197345,0.015081,-0.0436056,-0.0329196,0.0823852,0.0841087,-0.0582557,0.0544639,0.0432609,0.09445,0.0534297,0.0882453,0.0115477,-0.00340399,0.0117201,0.0572215,-0.106859,0.00127111,0.00844535,0.0199069,0.00238064,-0.120648,0.0344708,-0.0342984,0.0455015,0.077904,0.0517062,-0.0279213,-0.0506721,-0.012151,-0.0287831,0.0503274,0.0137021,-0.0436056,-0.0090055,0.00857461,-0.0461909,-0.019476,-0.027749,-0.101344,0.0965182,0.0329196,-0.0965182,0.027749,0.0630816,0.0120648,-0.176491,0.00758358,0.0727334,-0.0394691,-0.0396414,0.0173216,0.0727334,0.033609,0.0703204,-0.0222337,0.0052568,0.09445,0.0751463,-0.0344708,0.0430885,0.0589451,0.0627369,0.0258531,0.00149733,0.0201654,0.0523956,0.0195622,0.0896241,-0.00529989,0.0179248,0.000883314,-0.0810064,-0.075491,0.0425714,-0.0865217,-0.0627369,0.00960874,0.0661839,-0.00280075,0.0510168,-0.0118062,-0.0937606,0.128921,0.0523956,0.0279213,-0.0379179,-0.0124957,0.0310237,-0.0344708,-0.0648051,0.0685969,-0.0475697,0.014133,0.0479144,0.0865217,0.0267149,-0.00176663,0.0568768,-0.0834193,-0.0147363,-0.0315408,-0.0361943,0.0937606,0.0173216,-0.107549,0.0792828,-0.117201,-0.00185281,0.0176663,-0.0311961,0.00366252,0.0879005,-0.0441226,-0.0841087,-0.0451567,0.00551533,0.0737675,0.0847982,-0.0713546,0.0789381,-0.0382626,0.0289555,-0.072044,-0.0854876,0.0137883,0.0318855,-0.00913476,-0.133747,-0.049638,-0.0489485,0.0139607,-0.0139607,0.0437779,-0.0568768,-0.0261978,-0.130989,0.049638,0.137883,-0.0174939,-0.0658392,-0.0124095,0.00960874,-0.136504,0.0263702,0.00284384,-0.0361943,0.0193036,-0.0420544,0.00443812,0.0217166,-0.0148224,-0.0158566,0.0703204,0.0355049,0.0351602,-0.0108583,0.0499827,-0.0503274,0.0227507,-0.0119786,-0.000904858,-0.033609,0.012668,-0.0220613,-0.0303343,0.0548086,0.0651498,0.086177,0.0479144,0.00642019,0.0206825,-0.0131851,-0.0699757,0.0104705,-0.122027,-0.0310237,0.0280937,-0.00205748,0.0368838,0.0111168,0.0410203,-0.00814373,-0.0847982,0.00775593,-0.0744569,-0.044812,0.0937606,-0.00295156,-0.0317131,-0.053085,0.0355049,0.0520509,0.0455015,0.0423991,0.0265425,0.015081,0.0210272,0.0978971,0.0537744,-0.0374008,-0.0379179,0.0256807,0.036022,-0.0651498,-0.0544639,0.0785934,0.0882453,0.0879005,0.017063,0.0534297,0.0713546,0.140641,0.0168045,-0.0627369,-0.019476,-0.0213719,-0.000974877,0.00891932,-0.102034,0.0176663,0.0458462,-0.00956565,0.0298172,-0.00303774,-0.0272319,-0.0844535,0.146156,-0.0841087,0.0119786,0.0627369,0.0215442,-0.0765252,-0.00260685,-0.0830746,0.0854876,-0.0367114,0.0324026,-0.0406755,-0.0439503,-0.00430885,-0.0396414,-0.00999653,-0.0299896,0.114443,-0.0896241,0.0748016,-0.0140469,0.0244743,0.0380902,-0.0322302,-0.126853,-0.00458893,0.0103843,0.0265425,-0.0090055
bison	0.0249665,-0.0679562,0.0373759,0.0449102,0.0413646,-0.0123355,-0.0585014,0.00174507,-0.0534786,0.0449102,0.0463875,-0.0274779,-0.124685,0.065888,0.0862748,-0.0543649,0.00613083,0.025262,-0.117003,0.01758,-0.0227505,0.0791837,0.0326485,0.0404782,-0.121139,-0.0679562,-0.00838372,0.186732,-0.00650016,-0.0215687,0.084502,0.0254097,0.0375236,-0.0295462,-0.0245233,-0.0107844,-0.0596833,0.0434329,0.0815474,0.0155856,-0.077411,-0.0295462,-0.0262961,-0.0404782,-0.000710955,-0.0655925,-0.00148654,-0.00653709,0.092775,0.0785928,-0.0880476,-0.0276257,-0.0251142,0.0165459,-0.00819906,0.011523,-0.0457966,-0.0132219,0.0311712,0.0270347,-0.0741609,-0.0357509,0.0295462,0.127049,-0.0700244,-0.120548,0.118776,-0.0635243,0.0186141,0.0493421,0.0951387,0.0162504,-0.0611606,-0.0558423,-0.0726836,-0.0120401,0.0183186,-0.0195005,-0.0154379,0.0339781,-0.0756382,-0.0463875,-0.0056507,-0.0910022,0.0366372,0.0348645,-0.0561377,-0.0133696,-0.0534786,-0.00919625,-0.16664,-0.0579105,0.00393333,0.0552513,0.053774,0.025262,0.062047,-0.0193527,0.0206823,-0.077411,0.0874567,0.053774,0.065888,0.0428419,0.0231937,0.0747518,-0.0117446,0.12173,-0.0249665,-0.0149208,0.0679562,-0.024671,-0.00513365,0.0360463,0.0478648,0.149504,-0.0257052,-0.0449102,0.0298416,-0.0898203,-0.0579105,-0.0163981,-0.0644106,0.0205346,-0.0358986,0.0166936,-0.0481603,0.10223,0.0525922,0.024671,-0.00975023,-0.012631,0.0520013,-0.03841,-0.0149208,0.106957,0.0295462,-0.03841,-0.0197959,0.0490466,-0.0593878,-0.0128526,0.0540695,-0.0110798,-0.0570241,-0.0196482,-0.0762291,0.0119662,0.0165459,-0.115821,0.0549559,-0.121139,-0.0239324,-0.0330917,-0.0496376,-0.0354554,0.0508194,0.0904113,0.00127418,-0.0570241,-0.0723881,0.0715017,0.0700244,-0.0723881,0.0892294,-0.000489358,0.0292507,-0.0161027,-0.0856839,0.0957296,-0.0302848,0.0182448,-0.133549,0.0101196,0.0336826,-0.0233415,0.0167674,0.062047,-0.0452056,-0.084502,0.0205346,0.0404782,0.138867,0.0449102,-0.0629333,0.00727574,-0.0218642,-0.102821,-0.00668482,0.0401828,0.0136651,-0.018688,-0.0564332,-0.0892294,0.0410692,-0.0534786,0.0273302,0.0381146,0.0688426,-0.010415,-0.0132958,0.0528876,0.0446147,0.0333872,-0.0747518,-0.00132958,0.10873,-0.0407737,-0.0617515,0.0387055,0.0593878,0.0457966,0.00491205,-0.0288075,-0.0558423,0.129412,0.0514103,0.0243756,0.0732745,-0.106366,-0.135321,0.026887,0.058206,-0.0121878,0.0490466,-0.0108582,-0.0635243,-0.0322053,-0.049933,-0.113457,-0.0395919,0.160731,-0.00550297,0.0419556,-0.0193527,0.0160288,0.0626379,0.0292507,-0.0344213,-0.0196482,0.00229906,0.0401828,0.0856839,0.00819906,0.00878998,-0.0410692,-0.00192973,0.0602742,-0.126458,-0.0317621,0.0452056,0.0358986,0.00308388,0.0260006,-0.0401828,-0.0413646,0.016989,0.0274779,-0.0333872,-0.0980933,0.0496376,0.00930704,0.0285121,-0.0886385,-0.013739,0.0181709,-0.0118185,0.0709108,-0.0401828,-0.0170629,-0.0753427,0.0419556,-0.0449102,-0.0243756,0.0626379,0.0302848,0.00391487,-0.0455011,-0.0277734,0.0945477,-0.0296939,0.0119662,-0.00297308,0.0475693,-0.0158072,-0.0296939,0.0712063,0.0243756,0.14064,-0.0738654,0.0261484,-0.0738654,-0.0505239,-0.0193527,0.00524444,-0.00746041,-0.0196482,0.0587969,-0.00150501,0.0248188
camel	0.0037141,-0.0303912,-0.065938,0.0624105,0.0691942,-0.0188588,0.0491143,0.0183161,0.0409738,0.0599683,0.0577975,0.0301198,0.0374463,-0.022522,-0.0765207,-0.0966005,-0.0173664,0.0326977,0.0149921,0.0819476,-0.00922589,0.000822529,0.0474862,0.0640386,-0.0607824,0.0158061,-0.00620713,0.083033,0.118309,0.0207583,0.0179091,-0.0629532,0.0312052,0.100942,-0.0219793,0.0126856,-0.0105826,0.0211653,-0.0347328,-0.0396171,-0.00970076,-0.0286274,-0.099314,0.0229291,-0.0537273,-0.0572548,-0.0624105,0.00322228,0.0890027,-0.0483003,-0.119394,0.0466722,0.00970076,-0.0841184,0.0404311,0.00228951,0.110168,0.0558981,0.00267958,-0.0770634,-0.0857465,-0.00481646,-0.0599683,-0.00661415,0.0404311,-0.0355468,-0.0534559,-0.00266262,-0.0545413,0.00552875,-0.0447727,0.0232004,-0.0480289,-0.0466722,-0.0453154,-0.00970076,0.0548127,-0.0520992,0.0183161,-0.0298485,-0.043416,-0.0949724,0.00481646,-0.0134997,-0.0504711,-0.0401598,-0.0131605,-0.0263209,0.0278134,0.0583402,-0.027542,0.013771,-0.0529132,-0.0949724,0.0309339,0.0515565,0.0207583,-0.037989,0.0808623,-0.0664807,-0.0226577,0.0340544,-0.102028,0.0510138,-0.0287631,-0.0161453,0.101485,-0.0501997,-0.0721791,-0.0385317,0.0284917,-0.0195372,0.103113,-0.0303912,0.0461295,-0.103113,0.0436873,0.0363609,-0.0113967,-0.0922589,-0.0274063,0.0472149,-0.0043416,-0.0955151,-0.0469435,-0.0332404,0.0202156,-0.0906308,0.0172307,-0.0523705,-0.0862892,0.0242858,-0.0727218,-0.0786915,-0.0526419,-0.032969,0.101485,-0.0355468,-5.2468e-05,-0.0288988,0.117766,0.0229291,-0.0689229,-0.0371749,0.049657,-0.0272707,-0.0412452,0.026728,-0.0917162,-0.0483003,-0.0412452,0.0214366,0.0237431,-0.0347328,-0.0732645,0.0398884,-0.0417879,0.0222507,-0.0355468,-0.0260496,-0.0100399,-0.0331047,0.0982286,0.0347328,-0.0136353,-0.0274063,0.0618678,-0.00668199,0.00990427,-0.0531846,0.0363609,-0.0153991,0.0499284,-0.0294415,-0.0227934,0.145444,0.128077,0.0640386,0.0404311,-0.0455868,-0.00773347,-0.109625,-0.0439587,-0.00868319,0.00847968,-0.0455868,0.0852038,0.0147886,0.0409738,0.0377176,-0.038803,0.0955151,0.104198,-0.070551,-0.0274063,0.0577975,0.0721791,0.00501997,0.0341901,0.016281,0.0618678,-0.166066,0.0667521,0.0145172,0.099314,0.0523705,0.0145851,0.0048843,-0.0653953,0.0180448,-0.0393457,0.0501997,-0.0331047,-0.00970076,-0.0113967,0.00464687,-0.0352755,0.00172986,0.0291701,-0.125364,-0.0515565,0.0309339,0.0420592,0.0301198,0.00131435,-0.0156705,-0.0716364,-0.022522,0.0776061,0.0895454,-0.0210296,-0.0868319,-0.0510138,0.0583402,-0.0310696,0.00128043,0.0294415,-0.0260496,0.075978,-0.0404311,-0.00478254,-0.137303,-0.0358182,0.0163488,0.112339,-0.0415165,-0.0358182,0.081405,-0.0466722,0.0895454,0.0105148,-0.0130926,-0.0681088,-0.0123464,0.0852038,-0.00320532,-0.00573227,-0.0297128,0.00200968,-0.120479,0.00563051,0.043416,0.0507424,0.116138,0.0264566,-0.0274063,-0.083033,-0.0710937,0.0594256,0.0949724,-0.0450441,0.138931,-0.107997,0.00481646,0.105284,-0.011668,-0.0363609,-0.224678,-0.04423,0.0501997,-0.0226577,-0.0686515,0.0553554,-0.0184518,-0.0265923,-0.156298,-0.00617321,0.00569835,0.0529132,-0.0237431,0.0586116,-0.0417879,-0.0166202,-0.021708,-0.0613251,-0.0313409,0.00323924,0.0227934,-0.0268636,0.100399
